34 128
34 -0.13847032 0.31649995 -0.150326 0.089239225 0.04827278 -0.057961788 0.06151037 0.1170809 0.057732906 -0.27151442 -0.029948073 0.124587916 0.04403603 0.0625866 0.10459206 0.006147406 0.09082386 0.009576786 0.06613261 0.057647936 0.13553488 0.016649973 0.09611489 0.039178338 0.16781613 0.038124617 -0.17892234 -0.10290161 0.10247759 -0.056824002 -0.0010154073 0.17568423 -0.04451212 -0.08812605 -0.18118794 -0.09278021 0.017700074 0.0032765337 -0.059937697 -0.17806889 -0.019635512 0.10005116 -0.2373562 0.08013712 0.039684672 0.022438398 0.063218124 -0.15286912 -0.0304339 -0.06342123 0.0186075 -0.06263392 0.003165312 0.038589757 -0.11342628 -0.08170956 -0.04872416 0.28390315 0.10943934 0.09945721 0.14601283 -0.13044026 -0.13137853 -0.061608095 0.06460654 -0.014325051 0.024115704 0.024135822 0.025540901 0.21592608 0.06616377 0.24106972 -0.21361001 0.07467846 0.07397881 0.03538993 0.13312149 0.07702514 -0.012597656 0.05106585 0.13002282 0.10063091 0.17003402 -0.08854781 0.016306465 0.12115337 -0.06220734 0.067288935 -0.035829768 0.061903484 -0.16640109 0.011562399 0.176115 0.022384424 -0.011156873 -0.22357047 0.17504391 -0.21850175 0.0148929255 -0.12176445 -0.1272383 0.23176514 0.20204039 0.13352737 -0.028647097 -0.07018067 0.102396205 -0.13024464 -0.034942284 0.07750597 0.022560664 0.13194573 0.115657516 -0.12850888 -0.062447466 0.14270578 -0.08892018 0.27840862 0.03646352 0.09673402 -0.040117282 0.15569198 -0.075403936 0.17834468 -0.11408275 -0.05358451 -0.19403955 -0.14247224
1 -0.1771397 0.13642094 -0.07440954 0.09534505 0.052650806 -0.13556054 -0.038417086 0.086464666 0.018724466 -0.16836211 0.012655743 0.15994607 0.11382916 0.035956215 0.09170728 0.093877114 0.067357495 0.039914202 -0.011394889 0.09000129 0.009060478 0.03130356 0.08787953 -0.040961176 -0.011148488 0.09144786 -0.17027646 -0.12092934 -0.015379314 0.044925224 0.008090966 0.14028604 0.07265 -0.16883689 -0.1954237 0.022187492 -0.063743286 0.047379084 0.09498656 -0.13484125 0.016073313 0.12656759 -0.26179802 0.0020387317 -0.031337075 0.0008264589 0.02516829 -0.12591094 0.00938063 -0.11974331 0.061625674 0.061167866 0.07377672 0.023092536 0.01272919 -0.033116344 -0.051212262 0.13928668 0.14985643 -0.11481229 0.025468942 -0.1254265 -0.060485397 0.026863346 0.08145728 -0.021714712 -0.044772234 0.028756022 -0.0147640295 0.034000024 -0.065709144 0.21071184 -0.13291371 -0.0698274 0.015712224 0.024528423 0.11370588 0.15259969 -0.04539196 0.02780391 0.06589916 -0.042038042 0.16114944 -0.2421628 -0.025868038 0.14973176 -0.04583417 0.18045223 0.20030029 -0.009148274 -0.21384351 0.017146047 0.11181501 0.016834334 -0.0926439 -0.23835109 0.09135949 -0.16060221 -0.013090611 -0.15119292 -0.18441387 0.26055542 0.28413925 0.2432964 -0.10070826 -0.023683846 -0.0999949 -0.13340552 -0.12922277 0.06478205 0.015399157 0.0074618068 0.09377915 -0.04747455 -0.008787095 -0.0018068461 0.009472429 0.15754813 0.07069996 0.1459864 0.010717047 0.12517838 0.002887731 0.18385752 -0.16242182 0.056153294 -0.039164953 -0.19114038
33 -0.14291626 0.28495115 -0.12834607 0.089316696 0.046629068 -0.068366855 0.038721252 0.11244984 0.047648657 -0.24607071 -0.016031744 0.12623681 0.056706272 0.05796907 0.09902249 0.016269198 0.08344277 0.018519567 0.04740879 0.06495308 0.11255571 0.02175736 0.08671992 0.017507354 0.12067506 0.049620993 -0.1724656 -0.101797424 0.074663974 -0.03940741 0.0008880154 0.17027746 -0.016038643 -0.09770394 -0.18218687 -0.06268767 -0.0024131509 0.016586017 -0.024713872 -0.16993098 -0.007806835 0.10502119 -0.2421864 0.06806514 0.029379187 0.010778226 0.05591454 -0.1485211 -0.025256013 -0.07089831 0.02818849 -0.037082568 0.022138262 0.030157264 -0.09405649 -0.07173333 -0.046712767 0.25785813 0.1125395 0.051221646 0.11235638 -0.13058473 -0.10843761 -0.045669723 0.071340516 -0.017096378 0.00640097 0.026982874 0.01446228 0.17397782 0.03838366 0.23653436 -0.20023678 0.04784156 0.06606633 0.031284783 0.12627389 0.08598063 -0.012724508 0.048761625 0.112049505 0.08025048 0.15445653 -0.122705415 0.008306324 0.116148226 -0.05850235 0.09229062 0.0071721785 0.038146466 -0.18088917 0.005015549 0.16845267 0.016116751 -0.023745088 -0.22069088 0.14958717 -0.20619144 0.0071153794 -0.120286874 -0.12953001 0.234504 0.218902 0.15618208 -0.041262086 -0.05916247 0.0608394 -0.12676765 -0.06063224 0.07702052 0.025404155 0.10628619 0.11313032 -0.12014164 -0.048802104 0.107876286 -0.0638099 0.24033798 0.042032905 0.10956977 -0.027556699 0.14965923 -0.049972482 0.17757098 -0.12811133 -0.034841157 -0.16151431 -0.14838718
3 -0.16035318 0.18370306 -0.09501185 0.08520579 0.04179831 -0.109373026 -0.0015174409 0.09754144 0.030609008 -0.18725142 0.00019682418 0.13307038 0.08075456 0.048254073 0.08549811 0.0614857 0.073238514 0.02712249 0.010133202 0.07166802 0.046885733 0.023084927 0.08748512 -0.010464486 0.048323203 0.07018474 -0.15881546 -0.106635764 0.02310549 0.017771658 0.0048044897 0.14424339 0.035572313 -0.1351012 -0.18180837 -0.014201119 -0.032851994 0.03303084 0.038516458 -0.14184321 0.0014659323 0.110421285 -0.23770402 0.029885596 -0.009703535 0.0066454047 0.037783567 -0.12774727 -0.002530343 -0.09253381 0.04644162 0.019437142 0.040934797 0.031080805 -0.028079962 -0.050183088 -0.051102318 0.17408265 0.12833478 -0.044311587 0.06665479 -0.118538804 -0.078334756 0.0029427907 0.068086974 -0.016192572 -0.025964621 0.019785184 -0.0055766846 0.08688582 -0.023027424 0.20854886 -0.15255265 -0.023197658 0.038657103 0.02615531 0.10903881 0.121119805 -0.04067357 0.028500067 0.08450721 0.0041841078 0.16281448 -0.18338588 -0.0069568 0.13956793 -0.045083933 0.13420765 0.115521275 0.009467982 -0.18961582 0.02116972 0.12524153 0.014725399 -0.057075676 -0.2266309 0.1156797 -0.16907124 0.0029378273 -0.13079853 -0.1557144 0.23733683 0.24226227 0.19156006 -0.072520256 -0.036963195 -0.03250885 -0.12637377 -0.091311045 0.06678865 0.005029268 0.049207248 0.09682957 -0.07555676 -0.023088483 0.047508713 -0.024371184 0.18573932 0.057488926 0.122320876 -0.009817332 0.122480296 -0.020760791 0.17410903 -0.1432259 0.022918709 -0.087983534 -0.15865488
2 -0.17460899 0.14568786 -0.08770482 0.09768476 0.04590998 -0.1347884 -0.026352357 0.09148417 0.030160675 -0.17108731 0.008868409 0.1482649 0.10084519 0.042193796 0.087642044 0.091791205 0.071450636 0.03292544 0.00020555916 0.07815636 0.016216863 0.021634333 0.09598179 -0.02449767 0.016004402 0.084034994 -0.1652857 -0.1189936 -0.00896382 0.039902568 0.008160946 0.13871327 0.06221676 -0.15766431 -0.18510327 0.012305206 -0.058986545 0.040251195 0.07385399 -0.12976891 0.010692637 0.114808634 -0.24881999 0.009594025 -0.029867606 0.00231759 0.034397352 -0.12095909 0.0059666364 -0.11227623 0.05719479 0.048295815 0.056709763 0.031122934 0.008492788 -0.03668621 -0.050343484 0.14119394 0.14147891 -0.09243192 0.04246296 -0.118683815 -0.07098533 0.01853239 0.06888276 -0.0168807 -0.035117306 0.023742355 -0.014936791 0.054368116 -0.054107245 0.19939345 -0.1315126 -0.055549063 0.023091096 0.02608784 0.11462561 0.14296943 -0.05173604 0.021245757 0.06444576 -0.033376407 0.16990745 -0.21120769 -0.016294444 0.15576923 -0.038656525 0.1698685 0.17670444 0.003577177 -0.20480031 0.020387765 0.10857811 0.015843496 -0.082386374 -0.24101487 0.097315885 -0.15772305 -0.0033235159 -0.14512372 -0.17533152 0.25121054 0.27094093 0.22637667 -0.096277244 -0.026210949 -0.07918414 -0.13642997 -0.11138119 0.06535495 0.0028325857 0.024424907 0.08977557 -0.056528166 -0.017697632 0.018246165 -0.0056142104 0.1758609 0.0663947 0.13818945 -0.00024944486 0.12570806 -0.008369372 0.18648891 -0.16170932 0.04772201 -0.051482603 -0.1835235
4 -0.1717804 0.17913651 -0.1024891 0.093754046 0.044233147 -0.12448278 -0.009378324 0.1024685 0.036484092 -0.18711337 0.0016467524 0.14916722 0.09719058 0.05345855 0.090961136 0.07952159 0.07402188 0.03031259 0.010843745 0.073205784 0.03216053 0.020352274 0.10029607 -0.020769052 0.04326376 0.07582123 -0.17322537 -0.114203565 0.011225159 0.018788598 0.00709509 0.150303 0.04528463 -0.14467086 -0.18210584 -0.008963238 -0.043270793 0.032048672 0.049982913 -0.14259256 0.0070207533 0.11291936 -0.24761203 0.016775511 -0.009897958 0.00771525 0.038187202 -0.13060291 -0.002698053 -0.109462306 0.045777626 0.03006529 0.053109832 0.034299865 -0.011007012 -0.045500588 -0.052307952 0.16684589 0.14114809 -0.059440125 0.058143973 -0.11894987 -0.07555406 0.013219133 0.0736074 -0.014060714 -0.030074926 0.025863128 -0.0030153103 0.07797681 -0.02806803 0.20882417 -0.15109958 -0.030912055 0.03143874 0.027065206 0.11911339 0.13462046 -0.044582848 0.024882456 0.07772556 -0.0076839183 0.17068665 -0.20128193 -0.014634594 0.14769179 -0.048372652 0.1534412 0.13605364 0.012503409 -0.19649757 0.020672278 0.120044805 0.020115476 -0.07042167 -0.23957446 0.11629559 -0.1733633 -0.004855184 -0.13743417 -0.17100826 0.24285014 0.25780794 0.210023 -0.0787676 -0.039422244 -0.047071777 -0.12940326 -0.09899216 0.06812818 0.0056195874 0.036084462 0.096379854 -0.0693467 -0.020885738 0.038187962 -0.014359902 0.19308427 0.06534837 0.12848917 -0.003983373 0.12928084 -0.017370697 0.18441747 -0.14980587 0.034249883 -0.07668698 -0.17645718
32 -0.1485719 0.22170955 -0.10162914 0.081939586 0.046406552 -0.08434722 0.00036702992 0.10305208 0.0323749 -0.20950462 -0.001111371 0.13303724 0.07052615 0.049447253 0.10020482 0.04209922 0.080965474 0.025380865 0.034559302 0.06248373 0.073062874 0.03036687 0.07274694 -0.0050697033 0.062074862 0.058506716 -0.15769343 -0.10437957 0.048192658 -0.009134304 -0.007170452 0.14377056 0.014407319 -0.1150183 -0.17785856 -0.03461655 -0.022646729 0.0200077 0.027136557 -0.14733683 0.00048820127 0.117803924 -0.24197899 0.04136807 0.006705074 0.005572868 0.02520262 -0.13539276 -0.011826769 -0.08215019 0.03171428 -0.009196329 0.0420611 0.025751898 -0.05808132 -0.050816394 -0.04638759 0.20746057 0.1083936 -0.0118676005 0.08553381 -0.12314982 -0.07913649 -0.02025503 0.07799261 -0.017274892 -0.013262573 0.021082846 0.010387124 0.12034286 0.0022854237 0.22253366 -0.17412664 0.009548766 0.044802576 0.023976387 0.11993775 0.10611901 -0.02384863 0.03561803 0.09967591 0.043005656 0.14742377 -0.1677611 -0.01714203 0.11503321 -0.055430193 0.11843769 0.06959271 0.024996266 -0.18889658 0.0060348515 0.14383441 0.0090422975 -0.046099268 -0.21131258 0.12799607 -0.184572 0.0022508753 -0.11805075 -0.14403965 0.2340984 0.23964453 0.18328743 -0.06112029 -0.045661397 0.0018629835 -0.12028818 -0.08646347 0.062364615 0.028213838 0.06517899 0.09933341 -0.08895141 -0.030778283 0.054239504 -0.032021284 0.1981248 0.05616766 0.12155588 -0.0143807465 0.13005094 -0.028135445 0.17580222 -0.14165437 -0.011515916 -0.111850694 -0.16426517
14 -0.16510083 0.17686024 -0.097527586 0.087499544 0.047171857 -0.11987721 -0.009618509 0.10013437 0.031646643 -0.18635586 0.00011298626 0.14164227 0.08605132 0.0492195 0.089503154 0.07241416 0.07324505 0.026165606 0.014911828 0.076740205 0.035742156 0.02703634 0.095769264 -0.016710637 0.04142383 0.07528962 -0.16800244 -0.1162506 0.011198472 0.016333355 0.008561364 0.14625949 0.039843593 -0.13942131 -0.18008827 -0.010932491 -0.0433572 0.036027335 0.04589396 -0.13457283 0.004973095 0.115392715 -0.2395478 0.018008985 -0.008732206 0.007224439 0.0356252 -0.122632205 -0.0054640304 -0.10214556 0.048228472 0.021064395 0.04586772 0.034326967 -0.017464742 -0.042883538 -0.053914163 0.16568467 0.13394319 -0.053918716 0.054553594 -0.12078272 -0.076450884 0.008922661 0.066392355 -0.014133832 -0.031443436 0.024498338 -0.0076368875 0.08305772 -0.029362518 0.2011943 -0.14910354 -0.030566307 0.039527684 0.029848238 0.11526709 0.12804665 -0.036403667 0.030283086 0.074582085 -0.007552044 0.16590506 -0.19403067 -0.0074126855 0.14235991 -0.05008951 0.14724989 0.13297378 0.007884909 -0.18812826 0.016160304 0.12305789 0.01812867 -0.064208046 -0.23139411 0.113002464 -0.16684659 0.00016210887 -0.13889205 -0.16645968 0.23768434 0.24685897 0.20277262 -0.082141116 -0.03440637 -0.042462982 -0.12737587 -0.100238614 0.06890462 0.006189994 0.039523575 0.092983924 -0.07485336 -0.026218265 0.042737864 -0.020635096 0.1866893 0.05659459 0.12612069 0.000257877 0.12727982 -0.017824676 0.17888382 -0.14673577 0.027109198 -0.07523929 -0.16386141
24 -0.14631034 0.25407305 -0.12114267 0.08780121 0.041436795 -0.080319926 0.024700688 0.10585118 0.04516258 -0.22453555 -0.010439522 0.12438275 0.059206106 0.0574192 0.09719396 0.02569734 0.08119224 0.017907446 0.04981319 0.060037814 0.09277317 0.029946383 0.077575386 0.0064743035 0.10479122 0.045263756 -0.16378747 -0.10037236 0.06184085 -0.02767024 -0.008224979 0.15817659 -0.0040662824 -0.097541116 -0.17626248 -0.053400543 -0.0065241857 0.016586939 -0.010500098 -0.15787175 -0.0022707633 0.111349 -0.23544456 0.051907267 0.019733356 0.0119713405 0.038990315 -0.14385396 -0.020271394 -0.07930149 0.027921923 -0.022509146 0.019669605 0.030635474 -0.07935981 -0.06549301 -0.045807622 0.23309614 0.10981123 0.033527482 0.10670646 -0.12017004 -0.103182755 -0.032225907 0.07266616 -0.016105583 0.0033158823 0.027637152 0.010984 0.15166926 0.02838933 0.22565465 -0.18776108 0.036645476 0.048340645 0.030913685 0.11749944 0.100281455 -0.020399913 0.04110147 0.106978536 0.06718793 0.15458158 -0.1313003 -0.0072144563 0.119507976 -0.05656855 0.09718672 0.02482431 0.04025706 -0.17365637 0.008860287 0.15367684 0.014873624 -0.029656472 -0.20959847 0.1416295 -0.19347331 0.0052334103 -0.11248917 -0.12680902 0.2238171 0.21574701 0.16102363 -0.045912575 -0.057719946 0.035773877 -0.118923075 -0.061295286 0.07086975 0.025831757 0.083707236 0.097755745 -0.09906006 -0.04697761 0.092652604 -0.051961806 0.22599654 0.047087785 0.11050389 -0.021614227 0.14040726 -0.045644913 0.1716301 -0.13272032 -0.028554952 -0.1369444 -0.1545714
7 -0.1691909 0.085762374 -0.033787396 0.09343843 0.055708405 -0.1328625 -0.06606676 0.065837786 0.00018019625 -0.13506536 0.0210945 0.15710264 0.13018046 0.021688756 0.08882259 0.09845809 0.061842468 0.041837536 -0.030787008 0.10519436 -0.031955693 0.034135543 0.07890277 -0.07186024 -0.08822762 0.09062481 -0.15785062 -0.11021591 -0.055836402 0.072634235 0.0077925134 0.13432255 0.092263035 -0.18786673 -0.19296116 0.06834786 -0.086915284 0.05023305 0.15612051 -0.10361989 0.02381723 0.15046614 -0.2790328 -0.004416407 -0.061218765 -0.01095746 0.0071783597 -0.13304104 0.023731615 -0.13127393 0.06808951 0.081372514 0.08600209 0.0147857005 0.039037537 -0.013832896 -0.05649747 0.10597064 0.14331368 -0.19157127 -0.01714393 -0.1414575 -0.033191297 0.042987794 0.0929186 -0.016683694 -0.0790346 0.022627844 -0.022639884 -0.013328936 -0.09876245 0.21661592 -0.1280396 -0.11872241 0.009054004 0.01889216 0.10496995 0.17393129 -0.051746488 0.032363202 0.045158356 -0.072692 0.14922592 -0.2887071 -0.040895127 0.15891744 -0.03946377 0.2078704 0.27141666 -0.041272752 -0.22343594 0.008537113 0.11620339 0.00679733 -0.12157833 -0.24420936 0.061515834 -0.13717724 -0.023871254 -0.15669955 -0.19991407 0.27526334 0.31453797 0.2740687 -0.11643334 -0.004667054 -0.14928305 -0.12607712 -0.16399878 0.048328355 0.020603923 -0.025657745 0.09361304 -0.03787269 0.020064369 -0.035702404 0.03731078 0.10405847 0.06563185 0.16464029 0.030637356 0.12404709 0.02914671 0.18477708 -0.18011473 0.07526209 0.013402082 -0.20569588
30 -0.14557588 0.28608993 -0.13734524 0.09206083 0.051421087 -0.07365788 0.03775543 0.113386296 0.047878925 -0.2512065 -0.016004063 0.13372156 0.055277817 0.057123784 0.10863044 0.026119351 0.08517506 0.014696587 0.057832032 0.05994607 0.10746619 0.022702804 0.08470182 0.018686548 0.12491123 0.04627948 -0.17060843 -0.10648825 0.08125619 -0.03326557 -0.008834373 0.16939406 -0.020121839 -0.10061698 -0.1857441 -0.06582608 -0.0063562165 0.015921367 -0.024022192 -0.17681353 -0.012009725 0.112487614 -0.25034276 0.06437608 0.023580737 0.012475525 0.04945217 -0.1486365 -0.02412003 -0.078638084 0.030720515 -0.037638046 0.016334487 0.031990305 -0.09252344 -0.07412492 -0.045751724 0.25872907 0.118004486 0.0532074 0.12385307 -0.12717925 -0.11658201 -0.04164648 0.07202874 -0.012364863 0.014216004 0.02401876 0.016653817 0.17856462 0.038566206 0.23912859 -0.20125067 0.04923345 0.05927179 0.027691266 0.12964818 0.095467605 -0.016422033 0.0413032 0.11545324 0.07349828 0.15654379 -0.12219559 -0.00023590817 0.11940035 -0.06308424 0.094107844 0.006935859 0.048171524 -0.18148723 0.0093209585 0.16335717 0.01975127 -0.024230061 -0.21768083 0.15333663 -0.20602067 0.004914968 -0.12089375 -0.13091491 0.23212998 0.21312393 0.15552665 -0.045494203 -0.06337419 0.061790064 -0.12629578 -0.057397805 0.0727289 0.028543381 0.103853405 0.10382768 -0.11072736 -0.055803914 0.10715416 -0.06701807 0.24909931 0.04305183 0.1120551 -0.026818205 0.1486305 -0.054160845 0.17878717 -0.1271597 -0.03857576 -0.15624143 -0.15542905
6 -0.18079908 0.02631817 -0.010247993 0.09187442 0.05606635 -0.14493723 -0.093386315 0.05540124 -0.013088233 -0.09790228 0.032884076 0.15835069 0.15020007 0.0048195613 0.08513029 0.119035624 0.057877626 0.050647568 -0.05032945 0.11450892 -0.06797194 0.03467408 0.07115191 -0.09330367 -0.14364347 0.10134975 -0.15485425 -0.11176798 -0.08681496 0.10888878 0.011086302 0.12009697 0.12498454 -0.20603783 -0.19006811 0.10446688 -0.11115678 0.06226431 0.19860569 -0.084823005 0.036367394 0.16320536 -0.28427434 -0.027116513 -0.08328367 -0.015378623 -0.009182405 -0.12304899 0.04047369 -0.13730063 0.07374338 0.117609166 0.105204105 0.0077176266 0.07091375 -0.0017266087 -0.060223725 0.061338607 0.15401694 -0.25261402 -0.05574481 -0.14330639 -0.014467886 0.065014936 0.09277887 -0.019016773 -0.09931597 0.01989673 -0.028268998 -0.07444512 -0.13584685 0.20864595 -0.10415522 -0.15630765 -0.0077490853 0.019431645 0.09872759 0.19084333 -0.057261255 0.02369931 0.02362688 -0.106101334 0.15006924 -0.3291984 -0.058298096 0.16639125 -0.033575058 0.23639977 0.3423491 -0.060482677 -0.23298115 0.0121403495 0.09973938 0.0113125155 -0.13939114 -0.2482033 0.035494354 -0.124108195 -0.035050448 -0.17236713 -0.21074326 0.2818939 0.3374104 0.29652497 -0.14671572 0.011850692 -0.20947793 -0.12536827 -0.19030818 0.040527496 0.014893934 -0.0583492 0.08776784 -0.011221827 0.031824723 -0.08328116 0.06607549 0.06394334 0.07212846 0.18284957 0.042018056 0.1121165 0.052274868 0.18156557 -0.19400941 0.10835059 0.05835488 -0.21979737
9 -0.14633477 0.21256319 -0.104761474 0.0847507 0.047713947 -0.09210674 0.011484776 0.09785381 0.037492648 -0.20380387 -0.0067525744 0.1270236 0.07504071 0.047138747 0.09313332 0.044872973 0.07441902 0.023244154 0.028518898 0.06545695 0.06209808 0.026796633 0.08358657 -0.002843845 0.068746164 0.057111334 -0.15882945 -0.10702293 0.037729803 -0.0064614187 -0.0022311504 0.14644791 0.017732497 -0.115390286 -0.1693347 -0.031036386 -0.025706422 0.02507941 0.016190529 -0.14243305 -0.0002857839 0.10856599 -0.22966772 0.03992239 0.0027707652 0.011215353 0.040301267 -0.12932588 -0.011800812 -0.08714571 0.037156936 -0.0053500715 0.03756392 0.030864201 -0.050921258 -0.054701865 -0.04438862 0.19664896 0.118129 -0.010534782 0.08147004 -0.11722243 -0.08585833 -0.012231087 0.06404949 -0.013328745 -0.00777465 0.02627801 0.003001355 0.11624503 -0.002387584 0.21033962 -0.16397983 0.0050756177 0.043503206 0.027304145 0.11513582 0.10287351 -0.02532227 0.036767464 0.089837626 0.032230414 0.15064833 -0.15765774 -0.007582033 0.11998499 -0.05264103 0.11662757 0.071177326 0.022412222 -0.17874397 0.013767602 0.13318668 0.014008392 -0.04378705 -0.20991117 0.12213954 -0.17346257 0.0025101982 -0.121304475 -0.14178929 0.22489873 0.22529952 0.17543991 -0.06196651 -0.045526538 0.0004869531 -0.118690014 -0.07569003 0.06884018 0.01736991 0.06403715 0.09437384 -0.08576128 -0.036603875 0.06036422 -0.032681808 0.19885756 0.049731202 0.11520175 -0.01219285 0.12819535 -0.029959025 0.1698711 -0.13048239 -0.0005667084 -0.10179701 -0.15536235
28 -0.14720248 0.24852239 -0.12282914 0.08584472 0.043777175 -0.08287747 0.024856206 0.10934801 0.04373743 -0.23151866 -0.017054556 0.12721197 0.056356635 0.053380534 0.09331669 0.030325016 0.082024895 0.016344335 0.046553936 0.053033493 0.09617212 0.021605182 0.080281086 0.01403227 0.11288458 0.05296246 -0.15850952 -0.10676371 0.06531898 -0.028412756 -0.0047511403 0.15514186 -0.00962235 -0.1049674 -0.17929456 -0.058507767 -0.004684082 0.012386023 -0.01417051 -0.15935884 -0.0061456226 0.09955747 -0.23045696 0.054372404 0.01801704 0.009507191 0.04073708 -0.13929221 -0.016978761 -0.07587948 0.025765846 -0.024299711 0.027309373 0.035767186 -0.0793387 -0.06607744 -0.049957193 0.23387428 0.109501965 0.03434391 0.11276388 -0.116589464 -0.098936915 -0.03731041 0.07129298 -0.014023361 0.005134975 0.02094872 0.008420899 0.15398861 0.026219435 0.21920775 -0.1824745 0.034333523 0.05102424 0.032838266 0.11935601 0.09872101 -0.023170171 0.04203693 0.10929215 0.059411824 0.15447909 -0.13190065 0.0032784406 0.12412534 -0.05548925 0.096256524 0.023520151 0.039016843 -0.17809427 0.011819735 0.15119728 0.017136035 -0.030571127 -0.21723425 0.14590716 -0.19347972 0.011658 -0.1195182 -0.13148217 0.22757483 0.21583363 0.15971592 -0.044840384 -0.052687928 0.04032289 -0.12188672 -0.058703687 0.06840498 0.020288404 0.09285903 0.10545149 -0.10354679 -0.04606734 0.093101315 -0.054615326 0.22850806 0.048975855 0.10415015 -0.021937598 0.13612925 -0.045915633 0.17725746 -0.13019823 -0.02452882 -0.14316905 -0.14676957
8 -0.1696807 0.18389137 -0.10159775 0.09108866 0.044884697 -0.118972294 -0.00839954 0.09972032 0.03527696 -0.19524626 0.0021759793 0.14574979 0.09028088 0.048215844 0.08909852 0.07231597 0.07497107 0.030909112 0.012580364 0.07328107 0.042482316 0.023117859 0.090349786 -0.014883884 0.04386523 0.07446738 -0.16390158 -0.116752736 0.020077886 0.01724536 0.0072647617 0.1483657 0.041193392 -0.13767837 -0.18337138 -0.012994862 -0.042421643 0.03500386 0.044284448 -0.14470202 0.0033023015 0.10960678 -0.24109398 0.022675952 -0.008121355 0.005854836 0.03173159 -0.12802108 -0.0029833787 -0.1028174 0.04574236 0.024600344 0.04759994 0.03196856 -0.024428276 -0.048098158 -0.052452926 0.17431565 0.13560462 -0.048636407 0.06579389 -0.11671315 -0.07800064 0.0066356803 0.068641245 -0.018216815 -0.026505519 0.021404482 -0.0007586401 0.08160033 -0.02436266 0.20562966 -0.14614442 -0.019446395 0.038473047 0.023725124 0.11761264 0.124531284 -0.034993365 0.026814008 0.07764859 0.0023198933 0.16270164 -0.18784112 -0.009226878 0.13360558 -0.04887123 0.14274637 0.12204229 0.010454635 -0.18915856 0.016030153 0.12573414 0.012940103 -0.061142508 -0.22959091 0.10767958 -0.171801 -0.00511133 -0.1362866 -0.16165349 0.23650527 0.24693596 0.19641332 -0.07995911 -0.040852584 -0.038145497 -0.12597467 -0.09702603 0.06573772 0.010670517 0.040543854 0.091654606 -0.07498577 -0.024651658 0.039478127 -0.021657974 0.1873373 0.06325845 0.123393565 -0.00038909938 0.12455643 -0.02204508 0.1804823 -0.1433149 0.026501527 -0.0850757 -0.16784063
5 -0.17231585 0.1060728 -0.05314788 0.08563908 0.053174064 -0.12407145 -0.0533104 0.07550609 0.0058734375 -0.14306676 0.014620672 0.14928997 0.11584554 0.025355611 0.08930455 0.086604066 0.0647982 0.036965545 -0.021154257 0.09268468 -0.012686372 0.03311046 0.07956211 -0.057402488 -0.05503361 0.089431554 -0.15633239 -0.11221674 -0.03739676 0.059953 0.0033547182 0.13053939 0.08134607 -0.17581202 -0.18594559 0.050990507 -0.07764614 0.051841546 0.12539881 -0.11122145 0.017525421 0.13853571 -0.2650907 0.0031024555 -0.043448776 -0.0034596608 0.015269621 -0.12580442 0.017157698 -0.12183298 0.06174782 0.07207203 0.07851262 0.013341776 0.017486824 -0.021627476 -0.05271577 0.11589935 0.14394717 -0.15297939 -0.0006134795 -0.1344586 -0.040217414 0.035945967 0.08430397 -0.01594794 -0.060419675 0.027341066 -0.014411906 0.0052430383 -0.07651297 0.21417427 -0.12516432 -0.09478007 0.011468308 0.017898003 0.10680517 0.15818314 -0.046664726 0.028803803 0.05397098 -0.05116806 0.1481256 -0.26159847 -0.039719786 0.14642519 -0.038826436 0.18601313 0.2337511 -0.026164789 -0.21445028 0.014174589 0.11688936 0.007536257 -0.104510136 -0.23090568 0.07138002 -0.14580579 -0.016879248 -0.14836127 -0.18119514 0.25492916 0.2937082 0.25249618 -0.109063685 -0.011361044 -0.12553346 -0.12310111 -0.14248577 0.054775067 0.017163828 -0.004833654 0.08977562 -0.04177064 0.005129774 -0.02221714 0.021530475 0.12456276 0.062996976 0.1580314 0.016163182 0.119141005 0.020777702 0.17793873 -0.16560471 0.06337727 -0.0076161097 -0.19233377
11 -0.17199904 0.10397203 -0.048024576 0.09313933 0.05588312 -0.13206021 -0.059160437 0.07614939 0.010209896 -0.14554438 0.021868145 0.15040496 0.1199441 0.020691123 0.09293942 0.09292069 0.068535976 0.043419305 -0.019761056 0.09362141 -0.012688355 0.02976453 0.075015545 -0.060347278 -0.06488361 0.08640294 -0.1582105 -0.10916536 -0.037071034 0.0667149 0.005279574 0.13545823 0.08096582 -0.17884098 -0.19044143 0.05356886 -0.08197154 0.04654713 0.13516694 -0.11011133 0.017914925 0.14685138 -0.26873347 0.002938446 -0.047807995 -0.009951116 0.0054085967 -0.12929107 0.017763074 -0.11948934 0.062063184 0.06902319 0.08079108 0.015195778 0.022174468 -0.017373491 -0.0570523 0.12029712 0.1427469 -0.16402768 -0.0019510472 -0.13419224 -0.038363256 0.039386377 0.090003304 -0.013613151 -0.067238666 0.020254953 -0.013610104 -0.0027573484 -0.087519 0.21311785 -0.12920794 -0.09716766 0.013396128 0.023340363 0.10529011 0.16042656 -0.05157755 0.02723774 0.054013927 -0.05662175 0.14849333 -0.2701313 -0.03438992 0.1480445 -0.042630255 0.1958455 0.24065173 -0.031334892 -0.21737649 0.011271781 0.117051974 0.0078082005 -0.11040108 -0.23631339 0.06610475 -0.14410852 -0.02071147 -0.1538566 -0.1907456 0.26797274 0.29683 0.25355187 -0.11686675 -0.012288971 -0.12773588 -0.124599464 -0.15342312 0.050432563 0.017643562 -0.011662346 0.090897776 -0.04495304 0.011792228 -0.027852036 0.027006062 0.12049341 0.070403636 0.15988062 0.025862047 0.121262744 0.017411495 0.18521422 -0.17721124 0.06267484 -0.0030896328 -0.19484128
25 -0.16116472 0.20980638 -0.10685941 0.09287426 0.04484593 -0.103172444 -0.007941052 0.10235805 0.03721145 -0.204316 0.0031075377 0.14151144 0.08654335 0.04725458 0.096877865 0.052954625 0.0806409 0.027852552 0.030932749 0.0699605 0.06015408 0.035030235 0.07771882 -0.0152923325 0.047359347 0.063899115 -0.16621533 -0.10716058 0.035448916 0.0041140337 -0.006964179 0.15048364 0.026992807 -0.12568638 -0.18778235 -0.023979615 -0.030461876 0.023158213 0.044240605 -0.1489704 0.006237002 0.12507053 -0.25605106 0.030244779 0.0030934506 0.0060622804 0.029841438 -0.13950993 -0.008191029 -0.09411661 0.034776393 0.007503122 0.046431538 0.024635918 -0.051824223 -0.05178905 -0.051842194 0.19766694 0.121643275 -0.02795056 0.07364389 -0.12487884 -0.08189346 -0.01226284 0.0812034 -0.01664294 -0.021897709 0.027599828 0.0017323324 0.10571084 -0.014367052 0.2305121 -0.17445596 -0.009648013 0.039029207 0.022166537 0.124061376 0.12808484 -0.03149842 0.04008545 0.09822799 0.029287979 0.15252553 -0.19432546 -0.021930961 0.1302792 -0.051169142 0.13478012 0.09639822 0.017406989 -0.19378039 0.010367917 0.14591415 0.01580955 -0.053207744 -0.2197602 0.12754586 -0.18829978 -0.0025618414 -0.12884359 -0.15758377 0.24504343 0.2571821 0.20425785 -0.075518474 -0.043459944 -0.02131689 -0.12691565 -0.093348525 0.06302529 0.02831699 0.053379808 0.09835676 -0.08448072 -0.025007019 0.047962587 -0.019781105 0.19810694 0.059145622 0.12957636 -0.010364962 0.1327465 -0.019129386 0.18020976 -0.15009245 0.0030370671 -0.0994965 -0.17846619
20 -0.16038305 0.19278683 -0.09899947 0.08771582 0.042222187 -0.11222462 -0.0034928215 0.09955735 0.034260467 -0.19409095 0.0004297245 0.14143494 0.088796094 0.052165005 0.08934141 0.06276581 0.072805345 0.031938303 0.02071904 0.07421941 0.050316323 0.023824332 0.08750409 -0.010224561 0.052249786 0.07267387 -0.16649656 -0.11109352 0.02571988 0.011913568 0.0062844455 0.14564358 0.03174184 -0.13448204 -0.18066123 -0.015935855 -0.03441642 0.031746496 0.03574263 -0.14546739 0.0016438514 0.11453055 -0.24047828 0.029184436 -0.0065043136 0.008524117 0.0394157 -0.13321951 -0.0059090955 -0.09981463 0.043991026 0.014972186 0.041790508 0.028810006 -0.028458757 -0.046753023 -0.04677878 0.18560052 0.1324689 -0.035024937 0.064974144 -0.118504606 -0.08046741 0.0014347072 0.074091956 -0.013566405 -0.022305083 0.02205933 3.8146583e-05 0.09240749 -0.014916054 0.21563475 -0.15483795 -0.013831667 0.039022934 0.02581211 0.11399375 0.12037867 -0.03520952 0.033294838 0.08088714 0.012209348 0.16345303 -0.18441539 -0.009786239 0.13861999 -0.051955245 0.13804047 0.107116796 0.017007278 -0.1902929 0.016836215 0.1304375 0.019385446 -0.060866404 -0.22958045 0.1162078 -0.17331946 -0.005313666 -0.12934442 -0.1574846 0.23439498 0.24310234 0.19272685 -0.07832278 -0.043258227 -0.025463378 -0.12895302 -0.095880836 0.0692556 0.013243242 0.05043752 0.09593626 -0.07920073 -0.030742457 0.05026707 -0.02137256 0.19327492 0.05854459 0.12581098 -0.0063097416 0.13144521 -0.02618026 0.17618963 -0.14614704 0.0203894 -0.09211147 -0.16691442
31 -0.15256466 0.22790822 -0.111419894 0.09200403 0.043399356 -0.08963592 0.009480673 0.10018065 0.043285903 -0.21857303 -0.010061189 0.13479537 0.06987957 0.05398906 0.0940789 0.044410784 0.07437256 0.020964084 0.029433973 0.06630351 0.0705776 0.02868962 0.08349239 -0.00017201406 0.083021455 0.059468232 -0.16655509 -0.10873583 0.046399537 -0.009883145 0.0009916615 0.15437846 0.008942913 -0.11755244 -0.177542 -0.032469433 -0.022495426 0.022709941 0.012067812 -0.15562716 -0.003612328 0.11492511 -0.24218073 0.04493717 0.007965704 0.008783088 0.039925564 -0.14119072 -0.014867898 -0.089966185 0.034873184 -0.003203624 0.029055888 0.03081909 -0.05819827 -0.058218956 -0.04478257 0.20708516 0.117817536 -0.0031446386 0.08437724 -0.12198951 -0.093763046 -0.016148798 0.06758087 -0.011248202 -0.005725704 0.026939819 0.0020654942 0.12965824 0.008019281 0.22391078 -0.17371678 0.010319426 0.04322268 0.024563713 0.11672766 0.10831905 -0.027728485 0.034963377 0.09308101 0.039594945 0.1558621 -0.15409465 -0.0058940635 0.13117433 -0.053733863 0.12054226 0.0688938 0.024773292 -0.18516542 0.012624132 0.14530483 0.01417275 -0.042466093 -0.2231299 0.13214226 -0.18081737 0.005560007 -0.12784868 -0.14138582 0.23760033 0.22904073 0.18192859 -0.06397067 -0.045579407 0.011053834 -0.12106884 -0.07824666 0.066385746 0.016957387 0.074933775 0.1025585 -0.09135952 -0.03356586 0.071409024 -0.03754881 0.21219265 0.050579064 0.116156876 -0.018774815 0.13931946 -0.03296472 0.17540295 -0.1350006 -0.0055796644 -0.1183438 -0.15852429
26 -0.15778187 0.25451174 -0.12621307 0.087173946 0.04878208 -0.09184917 0.01358699 0.11265682 0.04302395 -0.23476171 -0.006255325 0.13281737 0.0725636 0.057898916 0.10340218 0.03792902 0.07908669 0.026462259 0.044180132 0.059389725 0.08186481 0.03315452 0.08202453 3.677461e-05 0.09063651 0.052538496 -0.16781726 -0.109791405 0.06063295 -0.022796255 -0.0118880095 0.15900032 0.002497844 -0.11640467 -0.18454425 -0.04710486 -0.020606468 0.021995502 0.00545219 -0.16545808 0.00095197704 0.1172137 -0.25014025 0.049928244 0.015478991 0.012425799 0.036255483 -0.1493151 -0.016872093 -0.0849931 0.028228192 -0.016118204 0.029461937 0.033555944 -0.07278572 -0.06695071 -0.04875534 0.23288527 0.11511121 0.01715678 0.10474592 -0.12268525 -0.10071205 -0.031155411 0.07628628 -0.015494943 -0.0073217116 0.025520783 0.007997616 0.14959209 0.015957154 0.23441935 -0.1941493 0.023194395 0.047960635 0.031505305 0.12940943 0.1150313 -0.028622756 0.041016467 0.109955885 0.059724346 0.15568726 -0.16164538 -0.012971253 0.12174336 -0.059345774 0.10997551 0.04427739 0.033654664 -0.19394425 0.0059834034 0.1527632 0.011857277 -0.0373914 -0.22395343 0.14790168 -0.1964957 0.001870053 -0.120765835 -0.14064139 0.23857296 0.23996976 0.18055895 -0.057260457 -0.050466835 0.019177258 -0.124984846 -0.078672975 0.07032377 0.027730133 0.081591606 0.10480538 -0.09852237 -0.041960493 0.08239125 -0.046078507 0.23148733 0.053141523 0.11951902 -0.016663017 0.14512043 -0.036733598 0.1871034 -0.1454858 -0.019858649 -0.13247871 -0.17087139
29 -0.1485961 0.2270446 -0.1106244 0.07914937 0.04452893 -0.08746735 0.017731193 0.09783957 0.041488238 -0.2115439 -0.012184329 0.1247553 0.06597324 0.05026872 0.08913031 0.037413403 0.07953478 0.023755927 0.031442083 0.064160116 0.07554531 0.028851967 0.08434945 -0.0033931697 0.07966093 0.05628801 -0.1591271 -0.10309358 0.04973059 -0.009917451 -0.0027885158 0.14730838 0.0093692755 -0.10870477 -0.17292663 -0.037797373 -0.022067672 0.022174189 0.0059677316 -0.1527374 0.00035757216 0.108237065 -0.23707284 0.04422884 0.014594345 0.012692961 0.041040055 -0.1320766 -0.011657813 -0.080499776 0.035544824 -0.0100464765 0.032869305 0.027006881 -0.062130373 -0.055312596 -0.046920937 0.20822701 0.11749609 0.0040189535 0.08936199 -0.11994153 -0.086145185 -0.023473777 0.07252775 -0.014250197 -0.009093939 0.020436656 0.0055283336 0.1301728 0.01345614 0.22022243 -0.1732774 0.012737567 0.048992135 0.025822315 0.11281125 0.10429399 -0.022204842 0.04039096 0.09966597 0.044891976 0.15251185 -0.15151156 -0.007397404 0.11852451 -0.05495115 0.111657865 0.053286374 0.022744477 -0.17830501 0.006797731 0.14491315 0.015346074 -0.037587307 -0.21190107 0.1278189 -0.18050116 0.0010596442 -0.11610249 -0.13457392 0.22365999 0.22362591 0.16739088 -0.05569735 -0.045921672 0.018297642 -0.11937715 -0.07211425 0.06753997 0.018810838 0.06929346 0.100423835 -0.091112144 -0.036092285 0.07268398 -0.04491672 0.20422125 0.04678827 0.109581105 -0.017134832 0.12712748 -0.038975082 0.16539104 -0.12545349 -0.006359206 -0.11925142 -0.1546637
15 -0.1421832 0.25504404 -0.118678175 0.086825535 0.047598127 -0.07083482 0.024221769 0.10434071 0.0420317 -0.23087771 -0.018751925 0.12393914 0.057779107 0.050908983 0.09784523 0.02932523 0.07699782 0.012883365 0.045446478 0.06250209 0.094419405 0.020471299 0.08207891 0.008977616 0.1079578 0.05243153 -0.16403104 -0.105648905 0.06040463 -0.021967273 -0.00025125343 0.16099559 -0.010089607 -0.10393071 -0.172465 -0.05095975 -0.006232961 0.018548107 -0.012988147 -0.1594261 -0.010075676 0.10237879 -0.22972696 0.05578878 0.016654685 0.010353936 0.04691707 -0.14157662 -0.020622429 -0.0768642 0.030651342 -0.02658842 0.027417429 0.033659942 -0.07739632 -0.065830834 -0.04206747 0.23216483 0.11419245 0.032564215 0.10475448 -0.123587884 -0.1003757 -0.035175774 0.06555038 -0.011046538 -0.0011115875 0.025579691 0.009246236 0.15316899 0.030065665 0.2202703 -0.18311846 0.028123446 0.05319295 0.03100018 0.116914935 0.09555558 -0.01863038 0.04383596 0.10625752 0.0572452 0.15429647 -0.1293006 0.002653269 0.119602665 -0.054576933 0.09342028 0.028709706 0.032447662 -0.17529047 0.00826693 0.15024836 0.012700123 -0.030454246 -0.21198611 0.14003061 -0.18678549 0.010399527 -0.119437575 -0.13539593 0.226881 0.21167308 0.15852267 -0.0437602 -0.054377444 0.044008303 -0.12246256 -0.06085171 0.06976354 0.019392887 0.09050145 0.10509158 -0.105097994 -0.041225426 0.09300109 -0.05590417 0.22695743 0.03962231 0.10953697 -0.0260692 0.13312972 -0.04761363 0.16884862 -0.12507956 -0.024943205 -0.13429837 -0.14567557
27 -0.1409039 0.26856947 -0.1265533 0.08743381 0.043731313 -0.07501908 0.0324662 0.103091374 0.047008175 -0.23610298 -0.019838648 0.12461909 0.06309626 0.05763845 0.10418125 0.02248187 0.07911503 0.020676594 0.047320005 0.05866179 0.09844567 0.026093021 0.08627437 0.009374778 0.10764309 0.050227746 -0.16800174 -0.10285418 0.06974607 -0.02561867 -0.004147823 0.16304609 -0.013626709 -0.10482121 -0.1810831 -0.05989042 -0.0090247495 0.016564827 -0.010878116 -0.16700204 -0.0049614417 0.10980667 -0.2465099 0.062553585 0.02263337 0.009291704 0.048894536 -0.14751132 -0.022912877 -0.07895189 0.02991896 -0.029458644 0.017619032 0.024856072 -0.08298836 -0.06939869 -0.04861764 0.24715042 0.11365123 0.035570934 0.10690587 -0.12808014 -0.10512693 -0.0410668 0.06771623 -0.012440956 0.006025551 0.025540348 0.016391803 0.1657875 0.034086253 0.23646002 -0.1907031 0.03956989 0.0545634 0.03271055 0.119009174 0.09545723 -0.021411736 0.043789707 0.11168116 0.072850235 0.15663074 -0.12907061 -0.0017816802 0.123264216 -0.055603735 0.09887368 0.016753322 0.03554565 -0.17927867 0.0091556115 0.16345869 0.016523894 -0.032642465 -0.22110555 0.15087825 -0.20063719 0.006637605 -0.1215038 -0.12838311 0.2323348 0.21829866 0.16488321 -0.04867118 -0.060177606 0.053126268 -0.12166138 -0.057996046 0.07488174 0.021217374 0.099922284 0.106516734 -0.11204677 -0.04992824 0.10280786 -0.062130876 0.23811443 0.04029482 0.11080546 -0.025932133 0.14303891 -0.04539666 0.17833136 -0.13019054 -0.03294746 -0.15263017 -0.15518704
17 -0.18106887 0.06148778 -0.027256072 0.09009592 0.05663045 -0.14208893 -0.079570815 0.062748864 0.00086934154 -0.11913882 0.025266508 0.16042891 0.1425486 0.016140314 0.08873248 0.10857182 0.063227355 0.045183394 -0.036495075 0.10692261 -0.05123205 0.034863383 0.07669483 -0.08226214 -0.110598125 0.10024461 -0.16247351 -0.116690904 -0.06887899 0.09316767 0.009561109 0.12819953 0.10623043 -0.20492783 -0.19911098 0.08224114 -0.098479085 0.060124256 0.17895755 -0.098549366 0.028354311 0.16031402 -0.28792772 -0.021960929 -0.06713377 -0.0135695785 -0.0015649286 -0.13034135 0.033359293 -0.13944866 0.07136421 0.1059049 0.10004143 0.01345019 0.053762667 -0.0135711385 -0.061713956 0.08973483 0.15463789 -0.22316232 -0.0317719 -0.14450614 -0.027895296 0.05403742 0.092870966 -0.017707815 -0.08866798 0.026553283 -0.025057193 -0.043564513 -0.11343635 0.21264292 -0.11794776 -0.1403179 -0.0037196286 0.02289061 0.10609462 0.18304978 -0.059760895 0.024827896 0.038173974 -0.0930009 0.15521902 -0.31110412 -0.05203915 0.1689574 -0.03752367 0.22542086 0.31213504 -0.04935402 -0.23391542 0.01919277 0.10967106 0.008682754 -0.13361077 -0.2534577 0.050629355 -0.13111137 -0.03182853 -0.17020966 -0.20932733 0.27822685 0.32801834 0.29180813 -0.13087285 0.00561864 -0.18188247 -0.12851694 -0.18029888 0.050427403 0.016224513 -0.040794216 0.09121669 -0.023201443 0.026693141 -0.05575212 0.046362042 0.09231385 0.075138204 0.17784236 0.032507055 0.120468 0.037313353 0.18495017 -0.18545397 0.09496097 0.036638275 -0.2176556
21 -0.13513128 0.28238502 -0.13363102 0.079619005 0.047848787 -0.063539885 0.046161857 0.10692753 0.05327238 -0.24326992 -0.027201867 0.12174147 0.04563702 0.063321814 0.097860545 0.010734949 0.08251308 0.013251541 0.05659069 0.05775016 0.1107954 0.019997707 0.09054508 0.022145154 0.13909054 0.04482916 -0.16640545 -0.106239334 0.079516046 -0.04430081 -0.0012805978 0.16623598 -0.025707686 -0.09211518 -0.16846359 -0.071804345 0.001435092 0.014987894 -0.038719933 -0.17134766 -0.014616044 0.10068551 -0.23386237 0.06742829 0.03639944 0.01806364 0.052935306 -0.14221554 -0.023553872 -0.06843903 0.021504158 -0.049663015 0.009651652 0.03307447 -0.097607106 -0.07050229 -0.04496104 0.25254983 0.108196355 0.070070095 0.120863326 -0.12217391 -0.11575222 -0.047150016 0.060996734 -0.016880145 0.013777752 0.020883542 0.01655848 0.1862668 0.04939975 0.23150124 -0.19777265 0.057114612 0.05869411 0.02693436 0.12232381 0.077675015 -0.017528612 0.0434242 0.11320036 0.080161296 0.15341137 -0.10154353 0.012440577 0.11010376 -0.05723532 0.07853361 -0.013470752 0.0439295 -0.16660489 0.004791415 0.15732707 0.018411161 -0.021614747 -0.21126574 0.15512422 -0.19537844 0.0073057045 -0.11130612 -0.11948455 0.21832657 0.19643387 0.14014243 -0.032986898 -0.06501368 0.079513 -0.120719284 -0.043108486 0.07707235 0.01835171 0.112518094 0.1052498 -0.116932966 -0.057104174 0.12014245 -0.07120767 0.24722224 0.037648767 0.0968058 -0.030954814 0.13872711 -0.06014053 0.16441946 -0.112899184 -0.03743388 -0.1643067 -0.13482293
10 -0.15349501 0.23169935 -0.111900486 0.084350385 0.043040965 -0.09029259 0.01658193 0.103337556 0.03657176 -0.21510683 -0.0059718066 0.13381065 0.07492997 0.054696128 0.09342093 0.03887105 0.082755156 0.0224196 0.03167564 0.066087015 0.07408063 0.024666164 0.08694776 3.7143996e-05 0.08478673 0.060763843 -0.1660083 -0.10835936 0.0472753 -0.0077522253 -0.0010612658 0.15508345 0.0049375887 -0.11720447 -0.18253681 -0.03727379 -0.018899878 0.022964418 0.0073663183 -0.15011486 -0.004213751 0.11066748 -0.23792407 0.042696267 0.00965707 0.008635148 0.03911336 -0.14095189 -0.012105219 -0.08094393 0.036308117 -0.0076722186 0.034783542 0.027849263 -0.057307426 -0.0590061 -0.052757625 0.21745767 0.11763234 0.004302483 0.0881584 -0.12183609 -0.09469449 -0.022803815 0.074063025 -0.016378434 -0.009742078 0.02399511 0.0035124521 0.1308825 0.007990859 0.22132865 -0.18005143 0.009279575 0.050900243 0.029007282 0.116170645 0.10790827 -0.02915283 0.03949727 0.09737915 0.040147714 0.16078311 -0.15426002 -0.0028634905 0.12921482 -0.056187347 0.11528149 0.06662094 0.025492275 -0.18590046 0.008867428 0.14257745 0.013905039 -0.04702294 -0.22499248 0.12830782 -0.18945293 0.004764432 -0.12843004 -0.14861257 0.23877472 0.23302561 0.17585044 -0.0606108 -0.045080565 0.011336014 -0.12611458 -0.07557161 0.07213681 0.015570626 0.070546016 0.10093689 -0.09006963 -0.03791823 0.077722505 -0.044368327 0.21429862 0.05278367 0.120907485 -0.015894298 0.14048378 -0.04038352 0.17586982 -0.1328538 -0.007590698 -0.123468466 -0.15972899
23 -0.13726953 0.2589136 -0.12129155 0.08176679 0.048287835 -0.07044595 0.02962249 0.106987886 0.0458689 -0.22814375 -0.014807877 0.12221485 0.05742288 0.051639386 0.0932835 0.02539126 0.07764315 0.018250633 0.047080725 0.05526085 0.0954011 0.023348615 0.08001102 0.012111123 0.112195596 0.049888965 -0.15651995 -0.099798396 0.068478405 -0.027079236 -0.0027090968 0.15661877 -0.010996874 -0.10266408 -0.17419845 -0.05787782 -0.004393315 0.012784937 -0.020910908 -0.16151328 -0.004465482 0.1050756 -0.23082712 0.06051124 0.02532684 0.013368923 0.042774547 -0.137522 -0.018824726 -0.07117867 0.028451702 -0.030123059 0.021647705 0.028099392 -0.080182895 -0.06570001 -0.048527904 0.23733489 0.111454405 0.041274678 0.11178581 -0.12069184 -0.09958807 -0.03814701 0.066207446 -0.012606888 0.0071857474 0.025559288 0.013585236 0.15901119 0.033825327 0.22111967 -0.18770504 0.035302036 0.054386236 0.027626986 0.11688667 0.0905793 -0.015058813 0.03948213 0.109974876 0.06684458 0.14945243 -0.12546058 0.001163895 0.112125725 -0.056624215 0.08911689 0.013095836 0.040333267 -0.17224333 0.010180537 0.1544934 0.01822743 -0.023934407 -0.20638895 0.1468035 -0.19333756 0.008695744 -0.11464313 -0.12910183 0.22377181 0.2104019 0.14942543 -0.042257357 -0.052711077 0.052506912 -0.115922354 -0.056877106 0.0733511 0.02232363 0.094500735 0.10196325 -0.10259467 -0.04927894 0.09650739 -0.058470502 0.2309073 0.041232247 0.10781389 -0.022740392 0.1410332 -0.0470745 0.16940871 -0.11894912 -0.027021943 -0.14431503 -0.14739726
16 -0.14644748 0.25220025 -0.1148054 0.08158879 0.04710498 -0.07477049 0.023200931 0.10132117 0.042099923 -0.2281441 -0.013403247 0.13128087 0.06597262 0.04870265 0.100234434 0.029789465 0.082918316 0.020325208 0.043489642 0.065857485 0.09305999 0.027083755 0.078657426 0.0053179944 0.09351173 0.053902835 -0.1603137 -0.102388 0.061726667 -0.017909529 -0.00036537115 0.1603168 -0.0025037455 -0.11200597 -0.1744268 -0.0516678 -0.014551952 0.01917721 -0.004870407 -0.1586665 -0.0039915214 0.11352907 -0.24299066 0.05507042 0.018878568 0.012698732 0.04270583 -0.14348915 -0.020750588 -0.074292436 0.031231228 -0.020712536 0.024514602 0.026808755 -0.07673681 -0.061710306 -0.04797616 0.23018707 0.1124599 0.023820244 0.09908879 -0.12630145 -0.09327959 -0.03222719 0.07083278 -0.015704986 0.00016721438 0.022569533 0.0074123396 0.14333627 0.017063355 0.22836044 -0.18516174 0.025750665 0.052896265 0.025968635 0.12231884 0.100331284 -0.01735925 0.038299702 0.103625186 0.05859416 0.1499482 -0.14198071 0.00052793074 0.115992256 -0.05749715 0.10138311 0.035861347 0.028874759 -0.18199527 0.006818976 0.15278295 0.0179397 -0.03692894 -0.21007912 0.13761008 -0.1926031 0.0025122901 -0.12081666 -0.13673475 0.23250253 0.22409602 0.16838552 -0.053869706 -0.049315434 0.033916418 -0.11851036 -0.06714078 0.07112872 0.021951111 0.085447684 0.1014278 -0.10117167 -0.04278264 0.0871304 -0.0520552 0.215321 0.043131173 0.11273483 -0.023175357 0.13847744 -0.041390635 0.17406552 -0.12741694 -0.022264853 -0.13455427 -0.14922461
18 -0.16323097 0.16324778 -0.08926515 0.0915294 0.05072971 -0.12065515 -0.018248063 0.09523174 0.025290908 -0.17676763 0.0080023 0.14577425 0.099807516 0.04557139 0.0873026 0.07880626 0.06632372 0.037454758 0.0068813926 0.07659239 0.02589988 0.030260839 0.08805439 -0.029368225 0.015445043 0.07273511 -0.15642406 -0.11404447 0.00078563107 0.0298738 0.0012609784 0.14264435 0.051383425 -0.15000276 -0.18387416 0.0057311035 -0.050851595 0.040725812 0.06531207 -0.13470252 0.011564242 0.12000688 -0.25046706 0.016905338 -0.017735535 0.006057922 0.025541743 -0.12871684 0.0048704734 -0.10600363 0.05123036 0.03341164 0.05296691 0.029641313 -0.009760078 -0.03958255 -0.05041102 0.1583293 0.1388912 -0.07842675 0.046486557 -0.11867587 -0.06479609 0.0138973985 0.07649345 -0.013562833 -0.030041894 0.022627922 -0.011153347 0.060368422 -0.037806258 0.2083425 -0.14164476 -0.044627838 0.032475475 0.023979006 0.110216744 0.13221125 -0.03668678 0.025952393 0.07416247 -0.0136855915 0.15218945 -0.20877221 -0.015388392 0.13592796 -0.04397272 0.15261215 0.15150301 0.00047857175 -0.19702151 0.017762965 0.11902355 0.018088555 -0.0733569 -0.233025 0.09673053 -0.16662332 -0.008836814 -0.13771829 -0.16425261 0.24078579 0.26298347 0.2126241 -0.0923779 -0.029161626 -0.05905284 -0.1277488 -0.1140466 0.062392544 0.014540957 0.03491684 0.094663344 -0.06255792 -0.017787758 0.026652906 -0.007937766 0.1726988 0.06323517 0.13520516 0.003591699 0.1269374 -0.0059074885 0.18114993 -0.15546726 0.037278015 -0.05953918 -0.17295855
19 -0.14704242 0.26806244 -0.12560135 0.08673608 0.050042447 -0.07552673 0.031797014 0.11153216 0.045473818 -0.2368548 -0.012915283 0.12953438 0.05881145 0.054736257 0.10416563 0.027134972 0.079480544 0.01757759 0.043046195 0.062027074 0.098366596 0.026811045 0.08776366 0.015636938 0.11055687 0.0512577 -0.16606851 -0.10681784 0.062425267 -0.026487054 -0.0009751908 0.16578934 -0.005401326 -0.10648768 -0.17480063 -0.054485623 -0.0049422174 0.01964227 -0.011412124 -0.16408104 -0.0074285395 0.106809415 -0.23906402 0.05887308 0.01882087 0.012865754 0.050874982 -0.14214198 -0.021892866 -0.0773008 0.032968663 -0.031085659 0.024380911 0.027353229 -0.084200695 -0.066564135 -0.040678967 0.23743911 0.11633642 0.03869922 0.11017213 -0.12526126 -0.09886527 -0.03161892 0.06775632 -0.010396905 0.005234612 0.02299701 0.008745271 0.15768948 0.029606957 0.22935753 -0.18488139 0.03182593 0.059143897 0.027751967 0.121928595 0.09007793 -0.018452086 0.045616817 0.107959166 0.064654276 0.15355185 -0.13065164 0.00020389812 0.114408664 -0.054600757 0.09275648 0.024263179 0.03670603 -0.17919046 0.008740702 0.15460442 0.01857468 -0.026160555 -0.21536899 0.14260752 -0.18910745 0.009772028 -0.122674786 -0.13490435 0.23239444 0.21554138 0.16095851 -0.049420502 -0.05616451 0.048597284 -0.120455526 -0.065149784 0.07010863 0.02477237 0.09213169 0.10594334 -0.11038691 -0.046142258 0.095839985 -0.058233704 0.22784203 0.045476157 0.11206973 -0.020286357 0.14273147 -0.046445794 0.17399412 -0.12465875 -0.02275869 -0.14386111 -0.14877011
13 -0.17727286 0.1598504 -0.08788048 0.089933805 0.04961439 -0.1275284 -0.028947126 0.092833735 0.028217433 -0.17779443 0.004552775 0.1501325 0.102986686 0.039369993 0.09113241 0.08494392 0.07169762 0.03928488 0.00016976063 0.087556496 0.019584807 0.027786229 0.09312142 -0.03404074 0.004253104 0.0864649 -0.16565144 -0.11640385 0.0007029585 0.032223135 0.002812028 0.14728533 0.055492878 -0.16298534 -0.19324456 0.012624524 -0.054662365 0.044322073 0.08245711 -0.13594392 0.013649485 0.12572111 -0.2642826 0.01345099 -0.026786134 0.0045983684 0.025847832 -0.1349469 0.0010438407 -0.115431584 0.05360137 0.04521477 0.06539053 0.028817996 -0.0013177283 -0.03461784 -0.05623691 0.15552682 0.13989426 -0.093716495 0.040732484 -0.13038321 -0.06411667 0.018405406 0.08213044 -0.02106287 -0.03772599 0.025984991 -0.012392299 0.060518377 -0.049901236 0.22044209 -0.14463402 -0.05352083 0.024469493 0.025648562 0.1153496 0.14771183 -0.044064965 0.027987484 0.07366581 -0.019605888 0.1699952 -0.22851054 -0.025025906 0.15029848 -0.04357229 0.17337355 0.1718477 0.0006027828 -0.21255524 0.018815568 0.123543166 0.01317037 -0.08662924 -0.2426636 0.10372087 -0.17131722 -0.0126616 -0.14577715 -0.1802175 0.25446928 0.27980822 0.23091264 -0.09642073 -0.03071056 -0.078602016 -0.13393131 -0.11760073 0.06839688 0.015063988 0.023171986 0.09579857 -0.059428852 -0.00953591 0.015024655 -0.0021381548 0.17305772 0.06389694 0.1395734 0.0068003526 0.13107282 -0.009690429 0.18785505 -0.16265701 0.045213874 -0.055591367 -0.18965366
22 -0.15788385 0.18502575 -0.10100036 0.08577536 0.04599446 -0.105032556 -0.009601782 0.09622944 0.029061038 -0.18775176 0.0051922537 0.14335011 0.08525313 0.049980707 0.09190289 0.06691351 0.07145147 0.03355466 0.016534925 0.071353294 0.04964951 0.027035415 0.084235676 -0.018575663 0.04076 0.06508818 -0.15969011 -0.10739018 0.025808673 0.009798017 0.00053536537 0.1407953 0.03635629 -0.13170323 -0.1854697 -0.014908361 -0.040715713 0.031305682 0.04616171 -0.14454299 0.007863049 0.11558189 -0.24382412 0.025922408 -0.01130304 0.0013579566 0.029174913 -0.12861224 -0.0036280374 -0.098032095 0.039721653 0.018796988 0.047623336 0.030417755 -0.030132936 -0.045076545 -0.04842754 0.17923434 0.12950774 -0.040547784 0.06779328 -0.12284565 -0.07433352 0.0027681624 0.07665399 -0.01683026 -0.02186203 0.027051589 -0.0043954942 0.09100671 -0.024615098 0.21234113 -0.15626831 -0.015560676 0.0351701 0.02334248 0.11627028 0.12613997 -0.03820705 0.030579079 0.080697544 0.008565908 0.1582362 -0.18430462 -0.018127842 0.13310218 -0.046879247 0.13608257 0.114516884 0.015417061 -0.19412951 0.013774365 0.12872358 0.014729253 -0.05946735 -0.22075199 0.11134282 -0.17141084 -0.0058206995 -0.13053244 -0.15057854 0.2354483 0.25014445 0.19425797 -0.077924915 -0.04088368 -0.028720077 -0.12642345 -0.09681467 0.06211335 0.016320812 0.04575189 0.0977052 -0.07182833 -0.026529675 0.041468434 -0.023517964 0.1843802 0.06260455 0.12478746 -0.00640327 0.12528276 -0.02086586 0.18096171 -0.14510897 0.0142489765 -0.08174145 -0.16818517
12 -0.17192431 0.15811063 -0.08429442 0.092811085 0.05242799 -0.11888692 -0.025249075 0.08932842 0.02239911 -0.178801 0.004194421 0.1510081 0.10214044 0.040212583 0.09454758 0.07420147 0.070925035 0.032123744 0.008507826 0.083793946 0.024529982 0.03180979 0.090870544 -0.032514032 0.00721638 0.07906578 -0.16703837 -0.11600967 0.0019727363 0.030328726 0.004729251 0.14233717 0.053014122 -0.15562591 -0.18561515 0.010228777 -0.05416059 0.0372549 0.07880346 -0.1315778 0.012807343 0.12619713 -0.25948912 0.011684947 -0.018787287 -0.00041484888 0.03093849 -0.12915465 -0.00012545905 -0.108861536 0.048510514 0.035271883 0.055204872 0.027204162 -0.009465848 -0.04186538 -0.050303407 0.15497974 0.14034833 -0.082330495 0.040754512 -0.12769993 -0.067099035 0.0152178025 0.076329485 -0.019941365 -0.04190425 0.024522115 -0.010667705 0.06106543 -0.045911122 0.21344288 -0.1431229 -0.052272327 0.024135187 0.022718092 0.118934475 0.14267561 -0.039263107 0.031244298 0.07127608 -0.020793367 0.16125835 -0.22207691 -0.024176575 0.14685453 -0.04735432 0.16604607 0.16716908 -0.002051727 -0.2052144 0.012744443 0.12517723 0.01674954 -0.07706425 -0.24020535 0.10341917 -0.16411863 -0.011767654 -0.14522815 -0.1731597 0.2523061 0.2696384 0.2257557 -0.09307235 -0.026542459 -0.07247919 -0.12539972 -0.11885184 0.061069712 0.013103573 0.026228508 0.095534414 -0.06334883 -0.016402895 0.02067485 -0.0066647003 0.16816935 0.0602718 0.1412835 0.0029556728 0.12949665 -0.0053153955 0.18125115 -0.15892686 0.03927936 -0.05482501 -0.185002
