34 128
34 -0.013759315 -0.1447351 0.025082344 0.13078506 0.14044495 -0.034220673 0.066306844 -0.05520387 -0.021516783 -0.097833954 0.14102007 -0.05197616 -0.015785618 0.021579746 0.05811812 0.19469576 -0.05104836 0.13978149 -0.058674816 -0.20025545 0.1080207 -0.056014694 -0.14700972 0.021015055 -0.078621626 0.059051387 -0.14106825 0.33953193 -0.07512593 0.11720042 0.080882095 0.016509524 -0.22644992 0.015860671 0.11200913 -0.07363003 0.008465108 0.18336062 -0.10361545 -0.11184603 0.0390282 -0.06300889 -0.000979357 -0.15990394 0.07920571 -0.14353354 0.10920727 0.025241956 -0.13655491 -0.17143653 -0.022682909 -0.0849153 -0.014005757 -0.030245315 0.32735673 0.22347707 0.1515413 0.10626402 0.05858474 -0.03223531 -0.02882563 -0.05233061 -0.011897005 -0.22092102 -0.052682877 -0.110909626 0.055090148 0.046664197 -0.029361835 0.0911672 -0.05654914 0.029576927 -0.15155917 0.013196453 -0.019511258 -0.15280177 0.07081084 -0.10313757 -0.18361443 -0.11542178 0.0694893 0.10252619 0.107621476 -0.027114615 -0.066083916 -0.0704775 -0.015724063 0.12868081 -0.055436738 -0.07261201 -0.0718747 0.05834141 0.048372164 -0.2349889 -0.029893849 0.0910497 -0.004681629 0.06280551 -0.08080804 -0.24167165 -0.057722416 0.050237775 0.075668484 -0.08431781 0.032061018 -0.03470403 0.18007766 -0.05022428 0.04638817 0.16001178 0.09556789 0.2096872 -0.013968369 0.04437473 0.025273561 0.17994656 -0.04040963 -0.0069006765 0.103556134 -0.045990646 -0.08893215 -0.06750194 -0.054420173 0.014553847 0.017918862 0.08960097 0.2803134 0.052968733
1 0.031484675 -0.14768672 0.03657519 0.21902946 0.18840493 0.025327248 0.093490124 -0.05366402 0.029967673 -0.031750556 0.1610926 -0.045607455 -0.06327288 0.10976312 0.0059879734 0.10258344 -0.10621821 0.0031487686 0.014772508 -0.2227948 0.13071217 0.00870493 -0.14730003 0.048493497 -0.093802884 -0.054703385 -0.13868882 0.19040856 -0.0838832 0.11893222 0.10356379 -0.09679848 -0.18625975 -0.036485974 0.0838366 -0.04415045 -0.13025519 0.059147887 -0.040573664 0.059549276 0.13612029 -0.023432655 0.06602129 -0.14679661 -0.012145525 -0.14845757 0.15900044 0.08324094 -0.060647056 -0.2190019 -0.009344832 -0.14145404 -0.10556546 -0.090325475 0.27844024 0.1532344 0.26608673 0.004320792 0.0826942 -0.05793004 -0.0243985 -0.034797043 -0.03248897 -0.13900492 -0.059026692 -0.03919861 0.041921664 -0.011564241 0.11410048 0.07710024 0.0018288469 0.012976508 -0.10641246 0.08130802 -0.06757811 -0.07673803 0.09123686 -0.061465107 -0.2687028 0.019500775 0.10008462 0.08763593 0.05084911 0.08064703 -0.13851339 -0.091174535 -0.038490556 0.14110455 0.010703762 -0.0529287 -0.13889176 0.057019584 0.15743332 -0.2606839 -0.14775139 0.1871857 -0.022591194 0.056985058 -0.070324354 -0.3183215 -0.08692344 0.02497835 0.12794957 -0.11226885 0.005338973 -0.020892613 0.19410859 -0.04059281 0.15662473 0.055262692 0.14719583 0.03539231 0.018077226 0.12605245 -0.07594979 0.18271437 -0.10476671 -0.03942618 0.03881387 -0.10249367 -0.090230085 0.011214909 -0.050443854 -0.01081926 -0.06588525 0.16577679 0.234102 0.08699396
33 -0.030462429 -0.128151 0.02070913 0.091469444 0.11606209 -0.051499024 0.055958863 -0.054769516 -0.035147104 -0.11675723 0.12208945 -0.05220906 0.003085538 -0.002032291 0.07865669 0.21931505 -0.03465691 0.17628717 -0.0741652 -0.19129069 0.106212236 -0.07219772 -0.139948 0.013310945 -0.073471986 0.09233872 -0.1459052 0.3761669 -0.07514986 0.11436535 0.07490326 0.040116325 -0.23530956 0.03605559 0.11736365 -0.08340092 0.05549683 0.22167423 -0.12723666 -0.16084555 0.004405737 -0.0687524 -0.020035062 -0.15780652 0.10576316 -0.13167545 0.09340044 0.009291407 -0.16577798 -0.1553398 -0.01993154 -0.06312026 0.020559626 -0.0073015676 0.33938137 0.24564457 0.12241328 0.13363826 0.049054883 -0.0243894 -0.01994695 -0.05466081 -0.0045755124 -0.24333881 -0.052085776 -0.14096792 0.06723627 0.067231625 -0.08011533 0.09884637 -0.06664232 0.032001365 -0.16135567 -0.005432513 0.0052150628 -0.18775824 0.069966406 -0.11683998 -0.16781324 -0.15667804 0.060740177 0.111209184 0.12208238 -0.062072624 -0.051112607 -0.061649118 -0.016409371 0.13501109 -0.06912651 -0.08043856 -0.054917775 0.071623474 0.013149258 -0.22890455 0.0002330307 0.05994388 -0.0026783193 0.07756873 -0.08851059 -0.22788128 -0.042326376 0.060136277 0.059986524 -0.081861116 0.04236994 -0.039426424 0.18493302 -0.04896947 0.015466511 0.20986338 0.09673648 0.27070823 -0.029434968 0.018402366 0.057307485 0.18762903 -0.021484645 0.001425855 0.116573505 -0.026720794 -0.08539618 -0.08906587 -0.05664472 0.022207623 0.043139465 0.06260094 0.3128674 0.04114089
3 -0.008173149 -0.14832814 0.022862954 0.14075226 0.14422312 -0.02297869 0.06745474 -0.05374802 -0.014813978 -0.087886184 0.13628596 -0.051000617 -0.020709867 0.036683843 0.050096836 0.17874776 -0.061593156 0.1134517 -0.043810356 -0.20661192 0.118892916 -0.044809207 -0.13937546 0.021065028 -0.081475064 0.040223785 -0.14051989 0.3140118 -0.07672507 0.12075447 0.08574448 -0.0032364707 -0.2128232 0.010612175 0.11043515 -0.07200803 -0.01399994 0.17085855 -0.10208302 -0.07909816 0.0482194 -0.055855118 0.0035937035 -0.15813075 0.061974354 -0.13713117 0.11358761 0.040800422 -0.12793916 -0.1804217 -0.017876824 -0.09524264 -0.02945916 -0.038982388 0.32350987 0.21030837 0.17310454 0.08427192 0.05879164 -0.03371258 -0.024112994 -0.044142596 -0.020272199 -0.2005568 -0.04933734 -0.09404339 0.05471697 0.037232686 -0.0055217547 0.0817476 -0.04132669 0.021420037 -0.13916822 0.026651738 -0.018749675 -0.14266592 0.07180901 -0.090866014 -0.19188634 -0.092060775 0.076486945 0.09402967 0.09196072 -0.012020002 -0.08231517 -0.069295384 -0.020808818 0.13095303 -0.044022564 -0.06709733 -0.0846879 0.06229865 0.059704542 -0.23628615 -0.053513195 0.097785264 -0.014203854 0.063685775 -0.0784624 -0.24679133 -0.056478873 0.045755967 0.08064125 -0.0907339 0.029238736 -0.032627422 0.17161229 -0.049629554 0.065370396 0.14202753 0.105160356 0.17719473 -0.0075754737 0.063679576 0.0109683145 0.17747949 -0.049970236 -0.010140429 0.085318096 -0.05286303 -0.0871087 -0.052180342 -0.050334096 0.014360947 0.0018709996 0.09797358 0.2752717 0.05589864
2 0.024079505 -0.14553563 0.027616616 0.18730874 0.16886449 0.010091889 0.08421785 -0.05095542 0.010187087 -0.048308067 0.1497998 -0.05020709 -0.04570847 0.081017256 0.025603611 0.12607197 -0.088408515 0.035679508 -0.0058982107 -0.20879522 0.12266307 -0.009733145 -0.14253084 0.030433826 -0.09039905 -0.020104494 -0.13400635 0.23354463 -0.07027858 0.12361153 0.096033126 -0.060686164 -0.19615516 -0.013207591 0.089024924 -0.05372069 -0.09174056 0.097542785 -0.06962994 0.0075732097 0.10100786 -0.040655967 0.040439177 -0.1443938 0.009715668 -0.13700359 0.13595843 0.06986807 -0.08292325 -0.20680864 -0.019211285 -0.12559362 -0.0830423 -0.07481254 0.29077482 0.17580256 0.2291559 0.029396532 0.07511039 -0.047565915 -0.0300671 -0.029569007 -0.031482965 -0.15294659 -0.052780744 -0.0569819 0.040267102 0.0076264567 0.06905911 0.07490917 -0.015472642 0.014556726 -0.11100544 0.05699798 -0.050743483 -0.09522872 0.088336006 -0.06833111 -0.2391449 -0.022691047 0.09308177 0.0874513 0.068408124 0.04885602 -0.115032986 -0.08540344 -0.03584309 0.13548575 -0.005696862 -0.06406824 -0.11754407 0.058174 0.123500206 -0.24787655 -0.117455885 0.1511018 -0.02062204 0.05674218 -0.06675357 -0.28992486 -0.07414041 0.033213694 0.104551 -0.10416401 0.010646095 -0.025376359 0.18269043 -0.0461661 0.124952145 0.08765372 0.12986283 0.089122534 0.0115687 0.10990215 -0.048041396 0.17900959 -0.082179606 -0.023703583 0.057522863 -0.08226824 -0.082310386 -0.014543273 -0.052568905 -0.0042817513 -0.039447866 0.14159796 0.24352619 0.078838594
32 -0.008891435 -0.13423853 0.022023058 0.14217944 0.14415455 -0.024994984 0.066381305 -0.052258115 -0.014433796 -0.08195061 0.13890845 -0.04903444 -0.01738924 0.03597396 0.05230324 0.17465198 -0.055990674 0.10421558 -0.039149955 -0.20145316 0.11309945 -0.041559525 -0.14430526 0.025334286 -0.07850716 0.034832943 -0.13975316 0.30439773 -0.07753766 0.11242976 0.08811646 -0.010184201 -0.21335906 0.011676203 0.09976611 -0.06486157 -0.01405154 0.15916897 -0.08395033 -0.0784122 0.05700295 -0.054991588 0.010829626 -0.14589497 0.06259027 -0.1405739 0.11667036 0.039704293 -0.11834823 -0.17430653 -0.013772245 -0.09662869 -0.027048277 -0.036107853 0.31017855 0.20179625 0.1685772 0.086062215 0.056665584 -0.031030912 -0.016942801 -0.051759437 -0.014493047 -0.19884019 -0.05411864 -0.097867794 0.0511093 0.033715196 -0.0060453005 0.08476037 -0.037496738 0.029023286 -0.137118 0.025973894 -0.02704353 -0.13857664 0.06798204 -0.09446444 -0.19676398 -0.08957851 0.07711077 0.102080815 0.09226581 -0.0031134123 -0.08465384 -0.067621104 -0.024352377 0.1247045 -0.03957956 -0.062482193 -0.080081694 0.061437126 0.066795185 -0.23163433 -0.05397619 0.101208165 -0.012557208 0.060669392 -0.074718356 -0.25086614 -0.060696904 0.049946778 0.08055258 -0.08178675 0.03529239 -0.026963824 0.17828354 -0.043599058 0.07146326 0.14375326 0.1057113 0.17390713 -0.016064258 0.053133253 0.002629613 0.17011023 -0.04862381 -0.013862717 0.08173794 -0.054340098 -0.086175196 -0.048318468 -0.045107763 0.0017951815 -0.0027636215 0.102066845 0.26471683 0.05363719
4 0.022046065 -0.1440359 0.023389818 0.18218145 0.15845689 0.011972359 0.082036056 -0.052354567 0.016391667 -0.046617493 0.14106838 -0.043617137 -0.048725896 0.08466863 0.019810416 0.11641605 -0.0917418 0.030269433 -0.0074047255 -0.20405033 0.114373066 -0.0064734835 -0.13478899 0.03661739 -0.07865263 -0.024695601 -0.119810365 0.21741371 -0.073069416 0.11172474 0.092214964 -0.06528966 -0.17903097 -0.0192214 0.0874441 -0.050760977 -0.09480515 0.0932223 -0.06182366 0.015762368 0.099135205 -0.03888379 0.033909943 -0.14023417 0.008440592 -0.13384409 0.13589528 0.07085078 -0.07221442 -0.19138922 -0.01607602 -0.12080789 -0.079629876 -0.07418961 0.27747738 0.15865435 0.22598208 0.022427434 0.07005353 -0.040336937 -0.028210325 -0.033198882 -0.03312132 -0.14337851 -0.042726826 -0.04810489 0.03865506 0.00082858134 0.07312566 0.073312975 -0.014867007 0.009349513 -0.104384944 0.060709324 -0.049744416 -0.090368494 0.077241205 -0.06454919 -0.22427091 -0.009149791 0.08846421 0.075815804 0.06157828 0.050689474 -0.11015092 -0.0790363 -0.027584897 0.12161525 -0.0054544616 -0.058021635 -0.10664161 0.054122582 0.120424174 -0.23561633 -0.11613663 0.1463545 -0.021965263 0.050401803 -0.06176971 -0.26560515 -0.07296612 0.024590291 0.10610259 -0.10082837 0.012200509 -0.018450484 0.16909464 -0.041983776 0.11345505 0.076198645 0.11320161 0.07478824 0.010586474 0.10363953 -0.04211504 0.1660048 -0.0758956 -0.019887436 0.04933144 -0.08222225 -0.083132595 -0.009898265 -0.04696714 -0.0032016747 -0.039945256 0.13778843 0.23362134 0.07276353
24 -0.02458379 -0.13765122 0.016166827 0.105978765 0.123092525 -0.044969354 0.0607579 -0.054440096 -0.02373908 -0.10689608 0.12903932 -0.05256788 -0.00094817916 0.010438526 0.0686302 0.20766863 -0.043000232 0.15876323 -0.06834326 -0.19688463 0.11227012 -0.060906235 -0.1434752 0.017395772 -0.07681881 0.07530084 -0.13962191 0.3577106 -0.07336558 0.118159235 0.082777955 0.027840473 -0.22756533 0.027487613 0.11354694 -0.078519575 0.031581707 0.21321377 -0.11834659 -0.14084172 0.016801901 -0.0700301 -0.011749926 -0.15920876 0.08574728 -0.13720943 0.10003496 0.020638034 -0.15362647 -0.16188808 -0.02223362 -0.074196234 0.004116502 -0.0148412585 0.33468935 0.23328279 0.13545015 0.11813098 0.04939071 -0.027201286 -0.0242472 -0.056327645 -0.006825847 -0.23155907 -0.047836453 -0.12683386 0.06477693 0.05337444 -0.05555596 0.09196376 -0.058594212 0.024955446 -0.15600657 0.0035160938 -0.0046914774 -0.17200062 0.06378781 -0.107961476 -0.171301 -0.13499185 0.061366085 0.105120614 0.110732056 -0.04845618 -0.062975794 -0.0626813 -0.013578153 0.12742229 -0.057922136 -0.074602254 -0.0646714 0.061505996 0.03222502 -0.23370004 -0.019003307 0.0739745 -0.007350611 0.06856341 -0.08120524 -0.22881813 -0.04770713 0.053920384 0.068493575 -0.07934458 0.03685468 -0.030142955 0.17813763 -0.05189064 0.03311231 0.18208413 0.09066871 0.23244217 -0.02279862 0.03130273 0.044136673 0.1782958 -0.032360468 -0.00085636356 0.109925464 -0.03767777 -0.08948618 -0.082667716 -0.050829783 0.017639713 0.032292023 0.07724686 0.29860067 0.049013432
14 0.008997857 -0.14214963 0.024495078 0.16347808 0.15148118 -0.008473137 0.07873419 -0.051202916 0.0013515875 -0.066751204 0.14588116 -0.042197593 -0.032882597 0.06027041 0.035987087 0.14110222 -0.07926842 0.07251421 -0.018656144 -0.20567338 0.119477 -0.02055212 -0.13920785 0.025643043 -0.08564714 0.001329998 -0.1261447 0.25683516 -0.06785739 0.11818787 0.085957915 -0.03750823 -0.19494902 0.00014163158 0.095038496 -0.057670098 -0.057726715 0.12670317 -0.077091545 -0.031632304 0.0737931 -0.04412024 0.028132757 -0.14438298 0.029727766 -0.1401874 0.121378124 0.052237604 -0.09931161 -0.18912166 -0.012513019 -0.11241728 -0.05602908 -0.05940441 0.2976643 0.18408969 0.2050516 0.05086647 0.06670384 -0.039268505 -0.02184689 -0.040234614 -0.027677314 -0.16756803 -0.046998292 -0.073965184 0.049996033 0.015319305 0.039666396 0.07704871 -0.027965564 0.019936753 -0.12328643 0.038518954 -0.03881968 -0.11193301 0.077328674 -0.07549607 -0.20944287 -0.050018873 0.08425067 0.09083956 0.079664975 0.01966058 -0.09867719 -0.07279188 -0.028883703 0.12908074 -0.019121513 -0.059014242 -0.099778436 0.05703895 0.093403645 -0.23901552 -0.090636805 0.12393612 -0.014645517 0.054587908 -0.06958627 -0.2646413 -0.06454016 0.036711246 0.09549437 -0.09491629 0.020490602 -0.019657437 0.17594162 -0.046538286 0.097488716 0.10840817 0.10902242 0.12347267 -0.00067912566 0.085982114 -0.020125002 0.1682832 -0.06940518 -0.014382848 0.06423122 -0.06698144 -0.07912013 -0.028368222 -0.045567926 0.0028477856 -0.021253109 0.12255302 0.25303432 0.06780817
30 -0.018775962 -0.13795385 0.025311107 0.114693694 0.1321096 -0.041867934 0.05839762 -0.05765779 -0.01840771 -0.09849167 0.1322704 -0.04523431 -0.0062504946 0.020208932 0.06022603 0.18799196 -0.05200095 0.1370051 -0.05773502 -0.19688782 0.113079146 -0.053733554 -0.14108348 0.018130291 -0.075296365 0.06345717 -0.13593146 0.33515516 -0.075312704 0.109959856 0.0807527 0.0119206775 -0.21840821 0.026064062 0.11431162 -0.070979126 0.012368383 0.19142073 -0.10307388 -0.1166821 0.027746513 -0.05626746 -0.007983147 -0.14927801 0.08121575 -0.13439481 0.10466798 0.02391606 -0.14212275 -0.16037002 -0.014249927 -0.080219686 -0.0042677512 -0.02572673 0.3191514 0.22227976 0.14778389 0.10726283 0.05326716 -0.02800161 -0.021897683 -0.053582426 -0.008543482 -0.21465567 -0.050989136 -0.113779634 0.059390225 0.046109106 -0.035820406 0.086063094 -0.053895973 0.02953574 -0.14559966 0.013148463 -0.011344919 -0.15723167 0.066793784 -0.09824573 -0.1767264 -0.114194594 0.070016734 0.10403898 0.10939041 -0.030481372 -0.065262765 -0.06536107 -0.013739472 0.12489752 -0.05489226 -0.06574639 -0.06380599 0.06431574 0.040585563 -0.23265171 -0.027237412 0.08399435 -0.003429365 0.064275086 -0.08270398 -0.23375173 -0.056285337 0.052080486 0.06591329 -0.07857524 0.035357423 -0.030997321 0.1751413 -0.044149432 0.039041888 0.17152746 0.09695274 0.21099186 -0.019457681 0.04040359 0.033318546 0.17793442 -0.035430208 -0.007845357 0.10094044 -0.040208474 -0.08643863 -0.06496657 -0.05205136 0.011785292 0.019189877 0.08348627 0.28562063 0.044977807
28 -0.016849358 -0.13830367 0.02068141 0.11726665 0.13249427 -0.04807916 0.05492122 -0.052180186 -0.027720703 -0.10050003 0.13445115 -0.054586355 -0.0030895376 0.0117465295 0.061754256 0.19741774 -0.044878494 0.1526941 -0.062413417 -0.20013201 0.11456331 -0.054497458 -0.13884589 0.013087764 -0.077112325 0.07276241 -0.13687189 0.35186285 -0.07164474 0.117661886 0.07555091 0.022152158 -0.22422014 0.026978275 0.11561564 -0.077669054 0.021230526 0.20109715 -0.11319484 -0.124619246 0.02384344 -0.062402096 -0.013613492 -0.15367582 0.08912893 -0.13374183 0.10369323 0.021218013 -0.14707938 -0.15837266 -0.021242227 -0.080019005 0.0018956126 -0.026332906 0.32956594 0.23122318 0.14639735 0.11087841 0.054705247 -0.023632476 -0.023211097 -0.057314713 -0.007056913 -0.21963425 -0.051520895 -0.12415234 0.06053654 0.051453628 -0.04553301 0.09444565 -0.05536044 0.03231374 -0.15791073 0.004764951 -0.013174591 -0.16736203 0.06527148 -0.10770409 -0.17318478 -0.13179846 0.06817172 0.10738769 0.11427677 -0.041128922 -0.0654583 -0.06638393 -0.018410036 0.12731291 -0.058046553 -0.07222642 -0.06885716 0.063870475 0.038082495 -0.23010589 -0.020259121 0.07773858 -0.0032426575 0.06924436 -0.08520061 -0.23468234 -0.04847638 0.05202333 0.065989114 -0.083053 0.04144385 -0.035198186 0.17108896 -0.045828354 0.035026535 0.17925023 0.09132423 0.22679056 -0.021692973 0.03721855 0.037738472 0.17577304 -0.036548678 0.002065478 0.10314394 -0.04457065 -0.08568661 -0.07426267 -0.053342372 0.01964655 0.021811081 0.076336466 0.28684136 0.048476182
9 -0.008829955 -0.12934741 0.023404395 0.12914038 0.13169199 -0.020757228 0.06725819 -0.054178007 -0.010502193 -0.07609489 0.12996577 -0.048889052 -0.02096893 0.033565313 0.04353028 0.1675568 -0.059008114 0.109284066 -0.038087904 -0.19285917 0.11231473 -0.03819537 -0.13369131 0.022771405 -0.072879985 0.03537145 -0.131351 0.2904454 -0.07348611 0.107273355 0.08002307 -0.0046552746 -0.2003962 0.013096165 0.10261149 -0.06530354 -0.0118713975 0.15539108 -0.0933408 -0.07261902 0.047637854 -0.049954485 0.0066934424 -0.14623731 0.05418781 -0.13222061 0.10916389 0.03709332 -0.11670597 -0.16818525 -0.016915398 -0.09013336 -0.023747044 -0.034181975 0.3022384 0.20219025 0.16183686 0.082332246 0.056591235 -0.036916386 -0.022164159 -0.048572578 -0.011473838 -0.18937439 -0.053107865 -0.09236826 0.05434635 0.03601034 -0.0025059134 0.082452856 -0.044595443 0.021382583 -0.13306774 0.027760746 -0.02070139 -0.13906278 0.06922369 -0.09183961 -0.18752396 -0.090089776 0.07145986 0.09050246 0.0899281 -0.011690408 -0.08016917 -0.070749275 -0.02205142 0.12824269 -0.03753053 -0.061315384 -0.082598954 0.06170453 0.064287886 -0.2270628 -0.05331764 0.097941525 -0.011855015 0.066592745 -0.07120836 -0.24266464 -0.056310076 0.046907723 0.082682915 -0.08387836 0.025931718 -0.0328042 0.16991404 -0.043052062 0.06246079 0.13721569 0.09950761 0.16773993 -0.0031470542 0.062196083 0.008079665 0.17133075 -0.046993192 -0.011628267 0.083977625 -0.048901074 -0.08572697 -0.04963159 -0.050633002 0.0139629925 -0.0018224921 0.09206047 0.26567706 0.05340774
8 0.021663683 -0.153683 0.029402949 0.20187208 0.17769417 0.009549271 0.089317136 -0.055928346 0.013988385 -0.044795834 0.1556567 -0.045005642 -0.053810056 0.088384055 0.022606667 0.11869686 -0.09414718 0.034548346 -0.0020274508 -0.21714413 0.12467698 -0.005912045 -0.141388 0.03937769 -0.09050893 -0.02578514 -0.13623032 0.23305479 -0.072104566 0.12746502 0.09385896 -0.06886022 -0.19554298 -0.018975293 0.09302803 -0.05255168 -0.10304972 0.09557595 -0.06717039 0.02187832 0.10426434 -0.035050645 0.043788966 -0.15027042 0.005721219 -0.1449379 0.14027312 0.07701714 -0.082209095 -0.21176101 -0.014314626 -0.12630035 -0.085254274 -0.08068148 0.2970688 0.17437121 0.23769496 0.027160553 0.076565795 -0.05038957 -0.028878307 -0.030902106 -0.03266236 -0.1585486 -0.049663518 -0.052422095 0.0468624 -0.002252636 0.082389854 0.07892398 -0.011365394 0.013264222 -0.11579991 0.06432459 -0.050533056 -0.092861384 0.08626571 -0.07044192 -0.2436887 -0.011767213 0.094945505 0.08334814 0.059903305 0.05328048 -0.1200298 -0.083628275 -0.036705017 0.13571559 -0.008149559 -0.05815384 -0.11983561 0.059648484 0.12722956 -0.25083816 -0.12405602 0.15454687 -0.023415986 0.06384251 -0.0688218 -0.29526004 -0.0775576 0.024978217 0.11211264 -0.10257257 0.01263719 -0.020444801 0.1847317 -0.045874294 0.13092807 0.08025282 0.12668994 0.07488643 0.016089313 0.11641162 -0.04794864 0.17743821 -0.08535367 -0.026991563 0.054234583 -0.09235926 -0.08660091 -0.0071534957 -0.047889072 -0.0016659877 -0.042813603 0.1420817 0.24566509 0.08002237
6 0.051383074 -0.15913111 0.04334004 0.2740737 0.21704282 0.05622029 0.10846022 -0.053962376 0.053152822 -0.002307867 0.17368631 -0.041488998 -0.092837594 0.14666566 -0.010760588 0.05777749 -0.123329766 -0.06668195 0.04555397 -0.23844282 0.12890023 0.03751296 -0.15480936 0.06657998 -0.108522676 -0.11607963 -0.14765784 0.122848034 -0.09360182 0.12511766 0.11166423 -0.14891358 -0.17117472 -0.062540434 0.07012132 -0.01979174 -0.20181736 -0.0059552933 -0.0065744263 0.14469424 0.18808171 -0.011298599 0.09881287 -0.13864353 -0.056157913 -0.15425791 0.19369718 0.120070994 -0.018711708 -0.24885692 0.0059865247 -0.17706348 -0.15112612 -0.1308658 0.25484294 0.122191526 0.3189764 -0.030201783 0.106851235 -0.07038892 -0.012846884 -0.02585841 -0.044726204 -0.11003164 -0.07049404 0.0026835823 0.030476527 -0.037215557 0.19142848 0.07505031 0.025308698 0.011274953 -0.079491615 0.109082244 -0.09101814 -0.035150334 0.10379401 -0.03210942 -0.30749407 0.09226008 0.119918846 0.08033637 0.021444056 0.13895978 -0.17588781 -0.10238432 -0.051769532 0.14348212 0.038108233 -0.046766054 -0.1666372 0.05610438 0.21417017 -0.2651851 -0.20203833 0.23975529 -0.028675033 0.05964563 -0.06309018 -0.36357892 -0.09951619 0.006775128 0.15485853 -0.124421746 0.0046492144 -0.018205548 0.20191501 -0.039235834 0.21724762 0.0057475795 0.17455325 -0.046614233 0.02604548 0.16798873 -0.13104987 0.18764493 -0.13769826 -0.05464677 0.0032517037 -0.13301775 -0.08891763 0.048253685 -0.046004258 -0.028091667 -0.10394225 0.20349136 0.20524977 0.10481832
7 0.053793337 -0.15872042 0.044223182 0.28161472 0.22397935 0.058668643 0.115812086 -0.057623364 0.054180928 -0.010775127 0.18287987 -0.039218903 -0.09616446 0.14959155 -0.009832799 0.0662715 -0.12764068 -0.05994541 0.045934018 -0.24098502 0.13155115 0.030395534 -0.15983772 0.06978082 -0.10750691 -0.11108316 -0.15167962 0.13696365 -0.0960718 0.13006867 0.11761574 -0.15130913 -0.18181537 -0.063307755 0.07848684 -0.021929514 -0.20168425 -0.0023984513 -0.0108318385 0.13985063 0.19104303 -0.0086632 0.10044788 -0.1455371 -0.047951214 -0.15950799 0.19632332 0.12112168 -0.02154918 -0.25502655 0.0052259015 -0.18240784 -0.15556815 -0.1317016 0.26895007 0.13020766 0.32566464 -0.032911967 0.10321315 -0.06498822 -0.01654834 -0.030456265 -0.040996958 -0.11942208 -0.06928419 -0.0048568817 0.034952138 -0.035585698 0.19250685 0.07885885 0.025761252 0.007574202 -0.08611353 0.10818721 -0.08921495 -0.03885763 0.09795233 -0.036080968 -0.31277394 0.08818437 0.12033628 0.07851374 0.02944972 0.13599053 -0.17613207 -0.10365698 -0.054799035 0.14680302 0.03040624 -0.051761005 -0.16805558 0.05977102 0.21062902 -0.27136075 -0.19878729 0.23746589 -0.02965137 0.06322536 -0.070736244 -0.36667845 -0.10323477 0.010588653 0.15528941 -0.12391892 0.0023776295 -0.014075709 0.20372503 -0.044716425 0.21933363 0.010278212 0.17763247 -0.040201664 0.023919014 0.1625755 -0.124982476 0.18980768 -0.138233 -0.059653144 0.0055301683 -0.13253768 -0.09014263 0.05211733 -0.044888634 -0.03201803 -0.09819765 0.19934054 0.20930004 0.10054438
26 -0.02358705 -0.13913698 0.026195176 0.11690479 0.12958668 -0.044076335 0.060029604 -0.05302851 -0.025234861 -0.1074366 0.13274509 -0.049686015 -0.0038323249 0.013192106 0.06701457 0.20467596 -0.05057796 0.14992051 -0.06549515 -0.19521973 0.109121904 -0.05751556 -0.14371218 0.017978724 -0.07359954 0.06452865 -0.14474769 0.35536703 -0.079986244 0.116078675 0.08151159 0.02229833 -0.22948858 0.026939943 0.11775524 -0.07323658 0.021056248 0.2018013 -0.106482565 -0.12520805 0.027579093 -0.06116694 -0.0025009785 -0.15867016 0.08791995 -0.14170712 0.10409963 0.021455452 -0.14517336 -0.15929364 -0.02085015 -0.079720326 -0.00019339705 -0.017401328 0.33207405 0.23120227 0.14450231 0.11193209 0.05306875 -0.027695663 -0.019716242 -0.05688979 -0.0059854398 -0.23004957 -0.048228893 -0.118577436 0.057283062 0.05458312 -0.0481827 0.09215663 -0.06089699 0.03415748 -0.15561533 0.008841793 -0.013032272 -0.16390832 0.067855746 -0.10941657 -0.1742679 -0.1274694 0.06424199 0.109643534 0.11129934 -0.0410977 -0.062226538 -0.07019141 -0.015706029 0.12411201 -0.05950929 -0.07338481 -0.06299719 0.06439263 0.034880243 -0.23178324 -0.0195278 0.082922764 -0.0056173345 0.06442976 -0.08349762 -0.23049289 -0.057820745 0.05921706 0.07074396 -0.07624344 0.040993493 -0.03510003 0.17622091 -0.046085965 0.04256622 0.17573467 0.092086576 0.222828 -0.023176374 0.029612768 0.035827152 0.17541713 -0.031875625 -0.006663063 0.10786031 -0.03487742 -0.08797745 -0.07485138 -0.049303897 0.010426741 0.021439997 0.07989949 0.28674144 0.045176327
25 -0.020132396 -0.13535653 0.023474364 0.116305955 0.12896445 -0.036701325 0.0626035 -0.05488859 -0.024402551 -0.100872055 0.13653556 -0.048869893 -0.01142089 0.013278475 0.06507284 0.19378045 -0.053569235 0.14273727 -0.057540637 -0.19033507 0.10801019 -0.05223653 -0.14365049 0.023207871 -0.074024044 0.059907995 -0.13526931 0.34031594 -0.07881311 0.11203565 0.08179519 0.018623397 -0.22529003 0.021331577 0.10740536 -0.07196731 0.012846837 0.1932068 -0.098972246 -0.11942019 0.035876267 -0.056134928 -0.0025746613 -0.15245171 0.08163545 -0.14118138 0.10274381 0.022976015 -0.13500045 -0.16125132 -0.016897606 -0.082439736 -0.0057958523 -0.022253482 0.32000738 0.21659501 0.14878915 0.10748082 0.053918764 -0.025885476 -0.01851557 -0.057423223 -0.009786575 -0.21892865 -0.045969214 -0.11476407 0.058375593 0.046311624 -0.04057101 0.09204504 -0.051366504 0.032805197 -0.15045452 0.007420625 -0.018095843 -0.1548131 0.06407643 -0.10537271 -0.1774222 -0.11666454 0.06655826 0.10145901 0.107277475 -0.033044364 -0.07017966 -0.06666907 -0.016196419 0.12302428 -0.0516989 -0.06590335 -0.070144534 0.059081875 0.04016416 -0.23176087 -0.026797345 0.08128673 -0.0031759215 0.06382947 -0.08080817 -0.23034073 -0.05809316 0.057493642 0.07089465 -0.07586666 0.039064612 -0.03427244 0.17369387 -0.049326595 0.041524153 0.16359746 0.095273815 0.21182619 -0.017731419 0.031390328 0.030723749 0.1677278 -0.03876012 -0.0020883102 0.10216294 -0.03889844 -0.08571006 -0.0700259 -0.047335617 0.013788088 0.022957066 0.07923409 0.27450702 0.04992545
11 0.043618117 -0.15682875 0.038881104 0.25399765 0.20877577 0.03506329 0.107650295 -0.059681334 0.040110376 -0.020774435 0.17469613 -0.036555696 -0.0773236 0.12537324 0.0026440292 0.08949314 -0.11473919 -0.020026196 0.0279503 -0.23376077 0.12985025 0.01964367 -0.15862466 0.058531526 -0.10078779 -0.0792405 -0.1467039 0.17129621 -0.08751695 0.12887268 0.11029707 -0.12338571 -0.1906372 -0.04341935 0.08696574 -0.029402688 -0.16212128 0.035396155 -0.02971832 0.0902277 0.16180287 -0.01906176 0.082171194 -0.1425996 -0.030444207 -0.15983796 0.17647028 0.098326236 -0.04309089 -0.23805664 -0.0012728225 -0.16721928 -0.12959976 -0.114238754 0.27525657 0.14944686 0.2923152 -0.011996137 0.09796675 -0.061606176 -0.014763379 -0.03271788 -0.038970202 -0.13463455 -0.06439444 -0.019240594 0.040212743 -0.021920837 0.15278922 0.08053679 0.010725968 0.016976219 -0.1015771 0.08700672 -0.0804994 -0.063239604 0.094884306 -0.050303504 -0.28674242 0.05314724 0.10744741 0.085708365 0.042541903 0.103104986 -0.159143 -0.09239325 -0.041447446 0.14209089 0.015237504 -0.05099676 -0.15396957 0.054974083 0.1778235 -0.26696715 -0.16675414 0.20990708 -0.027271073 0.061535083 -0.07511453 -0.34782174 -0.09562585 0.019951496 0.1367569 -0.12160433 0.00871074 -0.018368926 0.19852066 -0.03921248 0.18667509 0.04108042 0.15815932 0.006846573 0.020599907 0.14644943 -0.09724725 0.19300883 -0.12100599 -0.04800939 0.027734593 -0.11890252 -0.088575765 0.03182879 -0.049361885 -0.025328971 -0.07903307 0.18641509 0.22880113 0.098426655
29 -0.012258062 -0.1388032 0.025266998 0.12574947 0.130781 -0.030532515 0.060720418 -0.049390122 -0.01816958 -0.09804592 0.13728504 -0.051396474 -0.015596805 0.027698008 0.06195422 0.19229743 -0.057001304 0.13436632 -0.054295383 -0.20174503 0.115886554 -0.050182883 -0.14090042 0.023376176 -0.07622805 0.053993493 -0.13563246 0.33026335 -0.07893849 0.113428645 0.08506223 0.012305869 -0.2269032 0.013815478 0.110365145 -0.073247954 0.00895147 0.187979 -0.10494799 -0.10490269 0.04196977 -0.06311335 -8.63357e-05 -0.16031103 0.0739928 -0.14397646 0.11313623 0.026551338 -0.13880582 -0.1748287 -0.016592316 -0.08292052 -0.01485147 -0.03175672 0.33074912 0.22272071 0.15989055 0.10472486 0.05580646 -0.03609379 -0.024772039 -0.05630935 -0.014242098 -0.21741205 -0.048609685 -0.10724255 0.05511207 0.048766173 -0.025683602 0.08786633 -0.05311894 0.026247885 -0.14397165 0.016625712 -0.016923262 -0.15583849 0.06820369 -0.09986507 -0.1912074 -0.11051755 0.07442609 0.1053966 0.10354652 -0.024102323 -0.07066899 -0.07119895 -0.020598464 0.1268934 -0.04478805 -0.07095333 -0.074466065 0.05976023 0.049024407 -0.23437507 -0.03754245 0.09609811 -0.0091560725 0.06279938 -0.08081197 -0.24592568 -0.05666294 0.051914092 0.074211605 -0.08268844 0.03509244 -0.033093665 0.1816887 -0.052431107 0.049325142 0.15900269 0.103559494 0.20425247 -0.013012999 0.0438399 0.01960321 0.17980728 -0.041627936 -0.0063943597 0.10050606 -0.046601363 -0.087593034 -0.06415384 -0.05473774 0.009311701 0.012284896 0.090511024 0.28335324 0.056867506
5 0.040395096 -0.14098427 0.03502841 0.22930753 0.19033909 0.03997007 0.09810839 -0.047838278 0.03526048 -0.02729724 0.15227553 -0.040491756 -0.06845708 0.11699631 -0.0020026176 0.08340035 -0.10168651 -0.023194283 0.024437597 -0.21005853 0.11568889 0.0102656465 -0.13827929 0.05369007 -0.09130512 -0.07597676 -0.13104801 0.15629686 -0.07867976 0.11510834 0.100379005 -0.10877034 -0.16927144 -0.041846994 0.07511414 -0.03284218 -0.146786 0.031829532 -0.023343477 0.08562149 0.1478666 -0.015675712 0.070365295 -0.13678093 -0.023802763 -0.14383294 0.1548307 0.09170783 -0.04393069 -0.21408021 -0.008223094 -0.1427108 -0.11257218 -0.09230644 0.24941647 0.12889548 0.25830862 -0.007790803 0.08847327 -0.055003703 -0.019805599 -0.027028633 -0.030145897 -0.11904702 -0.06325766 -0.018906292 0.039781917 -0.017465316 0.13227263 0.07211527 0.0071778554 0.011812579 -0.09282212 0.08172056 -0.068213396 -0.06037819 0.088575736 -0.048396014 -0.2581244 0.039728776 0.09944044 0.079610795 0.032538746 0.09004685 -0.1427812 -0.0827661 -0.040713675 0.13014215 0.01741664 -0.048273835 -0.14103854 0.048582267 0.16464537 -0.23798195 -0.14784913 0.19346255 -0.024041826 0.056747276 -0.06073993 -0.30474606 -0.08547587 0.016110154 0.12517624 -0.10617974 0.0068556094 -0.015183155 0.18236735 -0.038073916 0.1699871 0.037021007 0.13808064 0.001389011 0.018144084 0.13166754 -0.09065373 0.16460834 -0.10191502 -0.0477441 0.021842942 -0.102231294 -0.08157605 0.022739777 -0.04213186 -0.020598294 -0.07146955 0.16434778 0.2039222 0.08547091
20 0.005341126 -0.14495696 0.024625946 0.16267063 0.1559644 -0.009693534 0.073702 -0.052289132 -0.0044569224 -0.07561993 0.14338405 -0.051745582 -0.0360081 0.05503704 0.0372338 0.15273003 -0.07087883 0.08669592 -0.026188154 -0.21184509 0.11886491 -0.02749239 -0.13935074 0.028141895 -0.08578546 0.016216926 -0.13419507 0.2836369 -0.072231 0.12073725 0.08781216 -0.026399033 -0.20773253 -0.002619864 0.10202045 -0.06497946 -0.047980625 0.14093627 -0.08225376 -0.048126377 0.06789932 -0.050112642 0.020233868 -0.1552548 0.045393206 -0.14217591 0.12362916 0.053906523 -0.10717139 -0.18920933 -0.016345672 -0.1084428 -0.048335694 -0.057965647 0.31042954 0.19990936 0.19818148 0.06575498 0.06417668 -0.037578743 -0.028912265 -0.041007258 -0.02230128 -0.1842398 -0.051282268 -0.08472405 0.048101336 0.027226282 0.028212586 0.08140903 -0.03302284 0.02403883 -0.12951404 0.041608438 -0.032870237 -0.12726869 0.08191599 -0.08351273 -0.21791327 -0.066021115 0.08609366 0.09641089 0.087464854 0.015190444 -0.09673504 -0.07678334 -0.02486386 0.1316708 -0.02729701 -0.06493206 -0.093972884 0.05982801 0.089623116 -0.24112774 -0.07566534 0.12502699 -0.011658519 0.06325079 -0.073892355 -0.26508966 -0.06190831 0.038713124 0.09481776 -0.095120825 0.020154247 -0.025800284 0.18412848 -0.04981207 0.08430758 0.12280884 0.11592604 0.14109614 0.0019700623 0.082320645 -0.009614883 0.1805816 -0.063112296 -0.018576825 0.07934854 -0.06831313 -0.08932653 -0.039826885 -0.055579122 0.005889642 -0.016023405 0.11539883 0.26271892 0.06588638
31 0.007772395 -0.14587753 0.026315125 0.16700053 0.16113155 -0.005190164 0.08281564 -0.050948545 0.002109049 -0.07120845 0.14262694 -0.044124223 -0.03543539 0.061487842 0.033256754 0.15014274 -0.07977274 0.07424441 -0.020874763 -0.21379673 0.121105574 -0.02332512 -0.14671223 0.03133973 -0.087845005 0.0028262783 -0.13771176 0.27204952 -0.077113606 0.12275784 0.09262792 -0.041950304 -0.20673661 -0.0060937647 0.09910194 -0.056869656 -0.054404635 0.1283915 -0.07972148 -0.03086234 0.0776823 -0.042890057 0.027157066 -0.15731712 0.037120856 -0.13994727 0.12826099 0.0539675 -0.10011116 -0.19968942 -0.014486821 -0.10939915 -0.060439724 -0.060326315 0.31079525 0.19372329 0.2095545 0.055723507 0.06591744 -0.04373796 -0.029560126 -0.043317515 -0.022926059 -0.18120308 -0.052161906 -0.07532133 0.05527834 0.016011994 0.04154899 0.08763244 -0.03127999 0.0187894 -0.12407649 0.047302425 -0.03629003 -0.12294126 0.078158416 -0.07991512 -0.22454327 -0.053871136 0.08456822 0.09589205 0.083007775 0.022418583 -0.10468523 -0.08257199 -0.027880494 0.13708475 -0.020268802 -0.06859146 -0.1066463 0.059246678 0.105322845 -0.2506026 -0.09218333 0.13388455 -0.016373623 0.06481893 -0.07611799 -0.27817366 -0.06997885 0.036049273 0.102127545 -0.09900006 0.023537574 -0.02527617 0.18441488 -0.04773151 0.0997187 0.116487324 0.12465159 0.13162515 0.005663759 0.09024951 -0.026427567 0.18142344 -0.0694927 -0.017582303 0.0726133 -0.0695747 -0.08561531 -0.029947344 -0.05309686 0.0034773508 -0.022603095 0.12770261 0.26547638 0.071131125
10 -0.005129984 -0.14718987 0.025781536 0.14955844 0.15347461 -0.026827049 0.074888185 -0.056353405 -0.010007532 -0.08113334 0.14564891 -0.049504858 -0.025920046 0.04005849 0.046357617 0.17676407 -0.06643155 0.10886776 -0.045724943 -0.20851897 0.11717397 -0.041387122 -0.14751565 0.024770506 -0.08238766 0.033110134 -0.14361383 0.3177789 -0.078062125 0.12437302 0.08232074 -0.012682093 -0.21609123 0.010556016 0.11023481 -0.070782 -0.020183187 0.16649707 -0.09914552 -0.07460052 0.052064013 -0.05337143 0.008157898 -0.15119165 0.059553895 -0.13845949 0.113969766 0.040146586 -0.12796585 -0.18436398 -0.023168273 -0.09655718 -0.033743724 -0.04411589 0.32245708 0.21722728 0.18041943 0.08547984 0.061357323 -0.040932577 -0.023078406 -0.04415813 -0.0139220655 -0.20388554 -0.055204514 -0.09673614 0.056154482 0.033325545 0.0013017416 0.08556251 -0.046728708 0.022323012 -0.14126116 0.027947066 -0.026828801 -0.14173765 0.07779896 -0.094113044 -0.20390713 -0.09101272 0.08048008 0.096496806 0.099327534 -0.007200421 -0.08620815 -0.07397665 -0.022243546 0.1345797 -0.041013386 -0.06921133 -0.08446925 0.0622956 0.06828794 -0.23980106 -0.057908643 0.1041233 -0.011173237 0.06994119 -0.08127119 -0.26054117 -0.057922445 0.045714363 0.083198875 -0.09298716 0.025240347 -0.033110075 0.18259092 -0.047348134 0.07212772 0.14949135 0.11154641 0.17759122 -0.0023939966 0.06855344 0.007520214 0.17883606 -0.050361924 -0.011671525 0.09265013 -0.05755725 -0.09075642 -0.048343413 -0.05809908 0.008267724 -0.0012590153 0.09924937 0.28234696 0.058268614
15 -0.02663416 -0.13722152 0.021329863 0.10557469 0.12439343 -0.04731081 0.05232139 -0.055364292 -0.024074806 -0.10469649 0.12861194 -0.050127544 -0.0024185795 0.0034930734 0.069371745 0.20591581 -0.037956916 0.16266616 -0.07057094 -0.19203828 0.10871996 -0.06383082 -0.14457045 0.014807415 -0.07183042 0.07704596 -0.14268354 0.3613485 -0.07747714 0.112272926 0.07564516 0.03304958 -0.23068532 0.030114336 0.11427111 -0.07756005 0.037660483 0.20967706 -0.11408951 -0.14260335 0.010916264 -0.06230711 -0.011338124 -0.14946494 0.08946375 -0.13128546 0.09695379 0.019535026 -0.1549517 -0.15415218 -0.019702045 -0.07362249 0.008933541 -0.010263274 0.3278127 0.23294245 0.13187407 0.1228026 0.047728166 -0.030606445 -0.024872424 -0.05735066 -0.004486019 -0.2338958 -0.053774398 -0.12602304 0.06434901 0.058131453 -0.056637436 0.09454853 -0.0638936 0.029813122 -0.15213837 0.0012853325 -0.0050554955 -0.1725155 0.06203448 -0.10932351 -0.169336 -0.14441594 0.064347655 0.10489336 0.11354213 -0.05184208 -0.054879423 -0.06522474 -0.016578035 0.13196331 -0.064656176 -0.07200076 -0.059069894 0.06559956 0.024911445 -0.22610177 -0.008694822 0.067244284 -0.0037027667 0.06825327 -0.081237935 -0.22779709 -0.046421025 0.059563264 0.064337336 -0.075803295 0.0436297 -0.039385628 0.17600563 -0.045973297 0.02970018 0.18856084 0.09545947 0.24070649 -0.022756374 0.023617031 0.045468777 0.17984162 -0.026423033 -0.0050881663 0.113731846 -0.030658847 -0.08727885 -0.08069138 -0.05503442 0.014633924 0.03348256 0.067729145 0.29293695 0.04029451
27 -0.002491424 -0.14821272 0.019670388 0.14707199 0.14989525 -0.027045606 0.06686877 -0.059596617 -0.010202029 -0.08117784 0.14775366 -0.043306794 -0.020808285 0.036085375 0.048259754 0.17168511 -0.061110288 0.11384036 -0.04698059 -0.2090542 0.11842617 -0.042504475 -0.14074378 0.022927016 -0.08527733 0.037701048 -0.13699625 0.3068875 -0.071216136 0.11694209 0.082145266 -0.011905269 -0.2175776 0.011800227 0.1100222 -0.06696306 -0.022195023 0.16496572 -0.100338005 -0.082879655 0.046788603 -0.060182586 0.0074381265 -0.1480549 0.05671578 -0.14193346 0.11736375 0.039837092 -0.12667212 -0.17342809 -0.016100897 -0.09914026 -0.027045483 -0.04611995 0.3191352 0.20505035 0.17545566 0.08348789 0.056671407 -0.035974484 -0.023431456 -0.052144 -0.016514951 -0.20558916 -0.048190832 -0.099241555 0.052977603 0.03411593 -0.0057533337 0.08506003 -0.04296614 0.023933621 -0.14079985 0.02122405 -0.026489569 -0.1347805 0.067606546 -0.09359772 -0.19571231 -0.08841408 0.0736864 0.0965437 0.10007701 -0.008849981 -0.084927514 -0.06554267 -0.02392745 0.13312206 -0.03843941 -0.06398442 -0.07809808 0.06303767 0.060646538 -0.23169838 -0.054138876 0.097553216 -0.0054571414 0.067105755 -0.07612993 -0.2514626 -0.062071286 0.044371765 0.07715617 -0.09059356 0.033139285 -0.026880555 0.17489895 -0.042388957 0.062465783 0.14578429 0.102716185 0.17695108 -0.010055894 0.060259826 0.013808553 0.17968561 -0.051572096 -0.0125623215 0.085083105 -0.06062204 -0.085807085 -0.05270281 -0.056298688 0.011305914 -0.000651867 0.099525474 0.2724656 0.053620752
13 0.023736818 -0.14317888 0.028395033 0.20299052 0.17793928 0.02240755 0.086182944 -0.053698685 0.025610004 -0.039392695 0.15581815 -0.04491535 -0.057678282 0.09661357 0.017345257 0.1100466 -0.09505408 0.023098573 0.0013432632 -0.2168309 0.11869335 -0.0027259523 -0.14036119 0.040492468 -0.088037744 -0.03897115 -0.1338395 0.20415303 -0.07979638 0.120916545 0.09899478 -0.07634915 -0.19033723 -0.026829837 0.08324695 -0.0411799 -0.11019216 0.07696131 -0.051713202 0.02961718 0.115476556 -0.033182852 0.05639807 -0.14311682 -0.0027053533 -0.14262481 0.14736226 0.07560551 -0.066762276 -0.21169537 -0.011633749 -0.13317475 -0.094004855 -0.08608237 0.27963644 0.15612565 0.24077773 0.021429418 0.082246155 -0.047176395 -0.024232827 -0.03724056 -0.030226285 -0.15090474 -0.058612652 -0.03948638 0.03904139 -0.0024953908 0.09271368 0.07589674 -0.007037134 0.018979996 -0.10467663 0.065861166 -0.054567013 -0.08268121 0.08789083 -0.057543766 -0.24918155 0.0045854035 0.09084212 0.081920356 0.053871747 0.065145366 -0.12304185 -0.08637591 -0.036736276 0.12947217 0.0006401888 -0.058921073 -0.12011204 0.05672192 0.13825157 -0.24623464 -0.12393887 0.16470526 -0.02311063 0.06034778 -0.06915156 -0.29724127 -0.07880632 0.025004342 0.11165755 -0.10127514 0.012008539 -0.017910313 0.18730183 -0.04268145 0.13849619 0.06689004 0.13829495 0.056369424 0.012768239 0.115116276 -0.058544237 0.17614487 -0.09396365 -0.030684236 0.043336187 -0.08971237 -0.08251007 0.0050099515 -0.049372703 -0.012043569 -0.055083007 0.15187311 0.22940508 0.07923113
19 -0.017038682 -0.14053892 0.024416259 0.121647 0.13404572 -0.04069142 0.06038459 -0.058413636 -0.017107815 -0.10135113 0.13619807 -0.04852873 -0.010007245 0.018176232 0.06618747 0.19713157 -0.05467409 0.1437268 -0.062059652 -0.19729637 0.111445 -0.056737375 -0.1494667 0.02153506 -0.08011407 0.061712697 -0.14585115 0.3502909 -0.07188939 0.11883398 0.08183788 0.011339888 -0.2303728 0.02331996 0.11862983 -0.080224365 0.016917396 0.1983016 -0.10813746 -0.12148164 0.029425561 -0.065925874 -0.0071170004 -0.1606065 0.07674963 -0.13944452 0.106051505 0.030313982 -0.1477674 -0.17547244 -0.016302885 -0.08701 -0.0071323058 -0.024088858 0.33848366 0.23272333 0.1569339 0.10791214 0.055180237 -0.03542071 -0.023337139 -0.055278834 -0.011397802 -0.22690594 -0.054826017 -0.11814718 0.060259245 0.04535733 -0.0412216 0.09404566 -0.055972736 0.025254287 -0.15325534 0.01150541 -0.010394095 -0.1639802 0.07491115 -0.10524206 -0.18602544 -0.12078342 0.07226468 0.102298714 0.111237824 -0.028678399 -0.07464456 -0.070529945 -0.015767926 0.13517086 -0.056583848 -0.07163491 -0.074430026 0.0661121 0.047828782 -0.24171703 -0.033265576 0.08888709 -0.009453078 0.069799244 -0.08688097 -0.24788646 -0.055333056 0.057305254 0.0747132 -0.083420895 0.035961304 -0.036039636 0.1826552 -0.050891526 0.046442166 0.17756987 0.10209893 0.21802314 -0.015682789 0.040111303 0.033731572 0.18645519 -0.038055744 -0.004953288 0.104873076 -0.042322885 -0.086606026 -0.073150195 -0.05904033 0.014980606 0.021555692 0.086403206 0.29617503 0.05540731
16 -0.0078404015 -0.14132257 0.024372486 0.13042448 0.13989876 -0.03262164 0.06560294 -0.055569924 -0.013631069 -0.087962404 0.13683188 -0.05042382 -0.020878473 0.027719043 0.055681102 0.17353202 -0.05703532 0.12000641 -0.048920102 -0.1995159 0.11187214 -0.043821797 -0.13799967 0.018771818 -0.07932628 0.044423494 -0.13943756 0.31253487 -0.0701812 0.11201693 0.07937828 0.0032063094 -0.21509652 0.016775645 0.110205516 -0.07245761 -0.00584374 0.17053293 -0.10050385 -0.09202972 0.03909886 -0.054056216 0.00067773747 -0.14877672 0.06677886 -0.1318123 0.113617145 0.034397487 -0.13208024 -0.17019849 -0.013988374 -0.08764424 -0.019566322 -0.0365992 0.3140604 0.20972902 0.16351464 0.09485793 0.05879699 -0.038302626 -0.024686983 -0.05127502 -0.011157671 -0.20888951 -0.053668875 -0.10383593 0.05437835 0.038631625 -0.017434113 0.083668076 -0.043646615 0.021709185 -0.14295357 0.019209072 -0.022833 -0.14076835 0.07289382 -0.09384857 -0.19210467 -0.09715911 0.076360665 0.0961369 0.09850038 -0.017393032 -0.07880803 -0.06750425 -0.017074004 0.13091001 -0.045564055 -0.07100507 -0.080435745 0.05853879 0.056274183 -0.22990459 -0.04444487 0.09169294 -0.010575325 0.06599166 -0.07641392 -0.24809636 -0.057948925 0.047613844 0.080972135 -0.08591364 0.035662714 -0.033463236 0.17304312 -0.04727767 0.05686772 0.15374394 0.10523717 0.18730016 -0.012891316 0.055351198 0.017337985 0.17983124 -0.049332384 -0.009051243 0.08758613 -0.053867128 -0.086442046 -0.05922035 -0.053040564 0.012831785 0.010045933 0.09180132 0.2770808 0.054228064
23 -0.009659839 -0.13827166 0.026447883 0.12937674 0.13674448 -0.028550437 0.06147115 -0.05424059 -0.018546257 -0.091833636 0.13426258 -0.045512244 -0.019447543 0.026867434 0.052805718 0.18388735 -0.056784023 0.12280607 -0.05110343 -0.200282 0.11584715 -0.048643194 -0.14511293 0.02024885 -0.081160866 0.047588214 -0.14340587 0.3213256 -0.07927163 0.11688082 0.085801795 0.0010344477 -0.21613328 0.012864185 0.11022886 -0.0690044 -0.0022199254 0.1776562 -0.10038011 -0.097848535 0.040666874 -0.056820296 0.004909091 -0.15018538 0.07031564 -0.13421369 0.11079831 0.031544425 -0.13508283 -0.17456502 -0.013208716 -0.09180769 -0.01771338 -0.035417788 0.31769538 0.21051374 0.15952462 0.09464653 0.057032336 -0.035166368 -0.019082526 -0.05242661 -0.011009375 -0.21313754 -0.05470367 -0.10881963 0.05921108 0.03719295 -0.015684547 0.0888267 -0.042919282 0.027071288 -0.14358291 0.016821347 -0.021825597 -0.14883904 0.07044169 -0.09940968 -0.19056636 -0.10332561 0.07463507 0.09894312 0.10216145 -0.015475416 -0.078101516 -0.07055972 -0.02358966 0.13021232 -0.04547733 -0.069732495 -0.079865985 0.064184435 0.056984138 -0.23324624 -0.04131813 0.096661836 -0.005746483 0.069990695 -0.08153478 -0.25108743 -0.054590885 0.050588153 0.08170603 -0.087707765 0.03164466 -0.028530579 0.17770694 -0.047303956 0.05567689 0.15862273 0.108356535 0.1935587 -0.018789815 0.051437747 0.019636817 0.17975442 -0.049101982 -0.006633847 0.09311674 -0.052426465 -0.08208563 -0.056852557 -0.049038094 0.008567183 0.009084855 0.090886064 0.28117573 0.05520472
18 0.012875627 -0.14388798 0.026638351 0.17329329 0.15993088 -0.003006179 0.07818224 -0.049603622 0.0013379261 -0.060330372 0.14464283 -0.049327392 -0.04160364 0.067087606 0.026632385 0.13266325 -0.079117246 0.055317942 -0.012519856 -0.20693254 0.11753302 -0.016663464 -0.13566215 0.028025046 -0.08112468 -0.0018660431 -0.12948953 0.24639623 -0.07147474 0.11505663 0.089245774 -0.045550324 -0.19213778 -0.009770605 0.09320519 -0.055968065 -0.06964993 0.10991056 -0.07423173 -0.017956818 0.088743456 -0.04520921 0.030840196 -0.14689854 0.029349081 -0.1351449 0.13116829 0.060436547 -0.09276878 -0.19507264 -0.018197132 -0.11332898 -0.062494405 -0.063243724 0.29197574 0.17879525 0.21142812 0.04486103 0.06628839 -0.03994945 -0.021453004 -0.035294373 -0.02543759 -0.16426316 -0.05030123 -0.06416894 0.046018105 0.012786824 0.051079147 0.07953398 -0.022146972 0.01931632 -0.11629485 0.046618156 -0.044836033 -0.11117468 0.08115193 -0.076317646 -0.22384778 -0.035913717 0.08892235 0.08582997 0.07552675 0.030976513 -0.10294673 -0.07913278 -0.027946418 0.12772933 -0.01819301 -0.06523003 -0.100706264 0.060396127 0.10792935 -0.23464698 -0.096247055 0.13655694 -0.017281484 0.05681452 -0.07011199 -0.2740289 -0.06642457 0.031599116 0.10227115 -0.09782032 0.017602958 -0.0264256 0.17325197 -0.04533108 0.10355583 0.09818359 0.11940568 0.10915518 0.0065718777 0.09125871 -0.030793896 0.17592004 -0.076477 -0.017442655 0.06592417 -0.07435652 -0.08479001 -0.022142783 -0.045447256 -1.0150892e-05 -0.028907407 0.12413806 0.24679272 0.06892153
22 0.011076643 -0.13937572 0.023277704 0.16526973 0.15702114 0.00039960607 0.07921644 -0.051138766 0.0045765755 -0.06349091 0.14522247 -0.046563778 -0.04063578 0.06446563 0.029282618 0.1392284 -0.07979054 0.060131155 -0.017311875 -0.20417498 0.12029827 -0.018489314 -0.13461807 0.025926825 -0.07923874 -0.00606893 -0.12600209 0.24826086 -0.06881785 0.116352476 0.088529155 -0.045740776 -0.1946598 -0.0053650537 0.09652915 -0.0564595 -0.06635128 0.1174531 -0.07057555 -0.021928018 0.07962845 -0.043387763 0.024771078 -0.15032525 0.026875148 -0.1400647 0.124523215 0.058102936 -0.09136256 -0.19177851 -0.02168784 -0.10819255 -0.06609734 -0.064698756 0.29588035 0.1804364 0.20632204 0.04182963 0.06210265 -0.03673098 -0.031047266 -0.033193223 -0.027419204 -0.16359422 -0.043907017 -0.06420683 0.046843663 0.014826175 0.04545257 0.07919626 -0.027309611 0.012561946 -0.120697886 0.051360477 -0.043393712 -0.11261412 0.07833994 -0.075499594 -0.21850623 -0.036869105 0.08205421 0.08291014 0.06967414 0.02943747 -0.10197176 -0.073163785 -0.024812318 0.12554623 -0.014658889 -0.059198145 -0.09693244 0.05558286 0.10455321 -0.23639011 -0.094172806 0.13303341 -0.014369409 0.055800855 -0.070403896 -0.26301697 -0.06349835 0.03675492 0.094066754 -0.09490913 0.013603556 -0.021049883 0.1675972 -0.045827102 0.100599736 0.09845115 0.11698784 0.109865695 0.010181967 0.09152807 -0.028801678 0.16833387 -0.07177308 -0.0139743555 0.06852422 -0.07169791 -0.079017915 -0.025787763 -0.052210458 0.0013003416 -0.028052352 0.12218997 0.24951304 0.06988798
21 -0.015484816 -0.13466074 0.025475381 0.11891752 0.12859382 -0.036397547 0.06141893 -0.056247924 -0.020484852 -0.10340727 0.1368047 -0.047323365 -0.0061100004 0.013447936 0.06314216 0.19779138 -0.048688043 0.1448535 -0.061507534 -0.19352224 0.11362746 -0.052433573 -0.14666036 0.02272947 -0.079563394 0.061845113 -0.14619634 0.33788413 -0.07744018 0.111363545 0.08325807 0.015490132 -0.22584899 0.018728662 0.11599777 -0.07522642 0.017109845 0.1923288 -0.10420582 -0.1227265 0.032594696 -0.058098406 -0.00034147783 -0.1546736 0.08397195 -0.13694914 0.104336195 0.023625357 -0.14417483 -0.16636959 -0.013526224 -0.085320555 -0.0063678077 -0.02376365 0.32749274 0.22572476 0.14625728 0.10924847 0.05470716 -0.029501945 -0.022366907 -0.053333484 -0.01027435 -0.22539932 -0.05407295 -0.118597314 0.06413578 0.050484154 -0.035499312 0.092627026 -0.05370878 0.028921967 -0.14621657 0.011165476 -0.008106292 -0.16175815 0.06916378 -0.099757805 -0.17963615 -0.12021729 0.07055646 0.10520959 0.110600606 -0.037154146 -0.07144479 -0.06742029 -0.016138097 0.13253197 -0.05456891 -0.06927511 -0.06929487 0.06256389 0.03897665 -0.23419505 -0.026323106 0.08517301 -0.006437893 0.07067188 -0.080253586 -0.24348658 -0.05111299 0.05692898 0.073567204 -0.08126059 0.041316066 -0.03509746 0.18113184 -0.05168592 0.042731825 0.17149521 0.10231917 0.21936694 -0.021537742 0.03412525 0.033022113 0.17948315 -0.03881807 -0.00813341 0.09965868 -0.04044965 -0.085102014 -0.070992164 -0.051819075 0.0136667155 0.018099701 0.078705594 0.28779194 0.047354642
17 0.041353997 -0.1604444 0.03596722 0.25212914 0.21049777 0.042521093 0.106425025 -0.05964892 0.044628024 -0.031561147 0.17697603 -0.040916592 -0.08149904 0.12798677 -0.00011344999 0.09558219 -0.11238055 -0.017813742 0.022422977 -0.2384611 0.12997074 0.016028227 -0.16332331 0.062945835 -0.11157157 -0.080047265 -0.1616233 0.17947815 -0.09456542 0.12463619 0.1156594 -0.12220743 -0.19456728 -0.044586506 0.08118057 -0.028578462 -0.15997641 0.03653395 -0.027494786 0.08768618 0.16443601 -0.024340307 0.087130524 -0.15148401 -0.026147729 -0.16294171 0.18527547 0.10418801 -0.05220126 -0.24168356 0.003453798 -0.16653423 -0.12174066 -0.10837741 0.27963084 0.14845231 0.2942866 -0.0014497583 0.09762503 -0.060600083 -0.014067786 -0.04154068 -0.034789287 -0.14367862 -0.070097774 -0.024955524 0.04651316 -0.014126446 0.14854248 0.084699936 0.0030971433 0.017414898 -0.09964802 0.09219368 -0.07316876 -0.06449709 0.09742797 -0.050301652 -0.29866925 0.045444626 0.114124924 0.09215633 0.0467059 0.102302745 -0.15850899 -0.097672306 -0.044582874 0.1491741 0.013793483 -0.05815401 -0.15692548 0.05934968 0.18475477 -0.27013397 -0.16812576 0.2164334 -0.027675908 0.07035293 -0.07575518 -0.35260183 -0.09931082 0.024058288 0.14094085 -0.11887346 0.017093867 -0.019282017 0.21571267 -0.046203595 0.18861839 0.045751162 0.16819444 0.016150653 0.01208546 0.1360093 -0.09797225 0.1992052 -0.11692654 -0.05509364 0.033483956 -0.11239041 -0.09121883 0.029127551 -0.046706807 -0.026278256 -0.07829649 0.18254739 0.23279075 0.09290936
12 0.027599875 -0.15433303 0.03286083 0.20776981 0.17825738 0.020636525 0.09241094 -0.05021776 0.022684949 -0.041148428 0.16064346 -0.04888418 -0.061445296 0.09455393 0.011729503 0.11734475 -0.0989067 0.016784552 0.001624418 -0.22092132 0.12665555 -0.005902285 -0.14301667 0.0421512 -0.09486679 -0.039785236 -0.13646637 0.21205905 -0.07923665 0.118408345 0.098141804 -0.0799873 -0.19163148 -0.030562371 0.08600485 -0.041984458 -0.11509919 0.07494704 -0.05058702 0.03277281 0.12298396 -0.032150414 0.0529996 -0.14885487 0.00018824986 -0.14974552 0.14860304 0.07419004 -0.07064447 -0.20958978 -0.012337736 -0.13466284 -0.09043776 -0.080183916 0.28325737 0.16219772 0.24099806 0.019066928 0.07973182 -0.049898427 -0.021516964 -0.038775764 -0.031483855 -0.14810833 -0.058429144 -0.040638614 0.041522395 -0.0034232442 0.09941962 0.07554561 -0.011131307 0.016389977 -0.10801992 0.07017372 -0.056511752 -0.085140124 0.08199513 -0.06796059 -0.2488291 1.7589657e-05 0.091685385 0.08330143 0.052246455 0.06504825 -0.12446601 -0.08220997 -0.031948686 0.1307849 -0.0036136324 -0.058249626 -0.12616313 0.054633856 0.14142975 -0.24709253 -0.12796487 0.17097643 -0.023359753 0.06154299 -0.07206078 -0.30101636 -0.08271042 0.02744546 0.11337796 -0.10436915 0.0130632855 -0.020888824 0.18367398 -0.04619444 0.13858373 0.06474107 0.136064 0.05928075 0.014767637 0.11335465 -0.059251122 0.17544311 -0.089864194 -0.034293734 0.04744989 -0.08948241 -0.08672852 0.0030939595 -0.049516693 -0.007407358 -0.05109089 0.1501501 0.22967295 0.08242583
